<?xml version="1.0"?>
<opencv_storage>
<opencv_ml_svm>
  <format>3</format>
  <svmType>C_SVC</svmType>
  <kernel>
    <type>LINEAR</type></kernel>
  <C>1.</C>
  <term_criteria><iterations>1000</iterations></term_criteria>
  <var_count>3780</var_count>
  <class_count>2</class_count>
  <class_labels type_id="opencv-matrix">
    <rows>2</rows>
    <cols>1</cols>
    <dt>i</dt>
    <data>
      0 1</data></class_labels>
  <sv_total>1</sv_total>
  <support_vectors>
    <_>
      -3.75104044e-03 4.26969770e-03 5.87330479e-03 -1.92006072e-03
      -3.14088073e-03 1.59738745e-04 -1.62786944e-03 -2.62484117e-03
      -2.50686752e-03 -1.28197465e-02 3.64079885e-03 6.26752339e-03
      -3.27961845e-03 -5.22627844e-04 3.80565063e-03 2.49727047e-04
      -3.66224558e-04 -1.45729620e-03 -7.06141535e-03 -8.15704334e-05
      5.26813371e-03 -5.98796736e-03 -6.63910294e-03 4.45723953e-03
      -8.38780834e-04 -1.66016456e-03 -4.00719466e-03 -7.39215873e-03
      -3.94086260e-03 9.91110131e-03 -3.57763446e-03 -2.71673454e-03
      7.17791403e-03 -6.05152105e-04 1.85548875e-03 -1.04878936e-03
      -1.94541719e-02 1.42311649e-02 1.29042473e-02 -1.58900092e-03
      -8.05078424e-04 3.83795053e-03 -1.44733582e-03 -1.61997101e-03
      -8.87771323e-03 -1.37887634e-02 8.74559488e-03 2.24446063e-03
      -3.57697648e-03 -5.33708138e-03 -1.26622536e-03 -4.63737454e-03
      -5.27695008e-03 -1.03685549e-02 -5.71450824e-03 8.29319842e-03
      8.61223415e-03 -3.60135199e-03 -1.90130284e-03 1.75320695e-03
      2.78489228e-04 2.82735797e-03 -4.46727686e-03 -5.43863652e-03
      2.53293440e-02 1.79363415e-02 -3.86467692e-03 -6.58322033e-03
      -2.57912022e-03 3.00903711e-03 3.71478195e-03 -9.43397637e-03
      -1.41099654e-02 2.84430152e-03 1.77292954e-04 -7.23760016e-03
      -8.77237879e-03 -5.65278437e-03 -7.39322510e-03 -8.75124801e-03
      -1.17848618e-02 -1.11175899e-03 1.03046168e-02 1.16721988e-02
      -4.68075182e-03 -7.50958407e-03 -4.61389543e-03 -5.32878796e-03
      -2.05034367e-03 -3.71036655e-03 -7.04424689e-03 1.61838774e-02
      1.21365925e-02 -5.62438229e-03 -8.77996720e-03 -6.82450878e-03
      -6.57086354e-03 -7.36676296e-03 -8.35327432e-03 5.45774726e-03
      1.17155444e-02 1.30420960e-02 -1.06856099e-03 -7.66123505e-03
      -5.31027140e-03 -2.51772278e-03 -1.76359364e-03 -5.23100467e-03
      -2.33335979e-03 1.18565280e-03 3.54986812e-04 -6.29440998e-04
      -5.90556627e-03 -3.21688643e-03 -9.17011697e-04 3.97435622e-03
      7.46039324e-04 -1.65029429e-03 -2.02579936e-03 -1.18177629e-03
      -1.06222904e-03 -3.03822383e-03 -3.29399644e-03 -3.87396547e-03
      -3.37277516e-03 -3.83792189e-03 -1.01098104e-03 7.85268005e-03
      1.03799589e-02 5.35495114e-03 -9.33713396e-04 -2.71794945e-03
      3.87595175e-03 3.21623404e-03 7.82443967e-04 -3.02196969e-03
      -2.72063073e-03 -9.96120390e-04 6.66732620e-03 -1.91689783e-03
      -5.39479125e-03 -7.12627079e-03 -7.81739410e-03 -4.23938502e-03
      2.45634816e-03 -4.76588430e-05 1.12884014e-03 1.10951398e-04
      -1.67855411e-04 -2.31002481e-03 -5.23879379e-03 -1.04686422e-02
      3.80658987e-03 1.26723647e-02 -9.82585014e-04 -9.55364958e-04
      -3.29092109e-05 -1.24239852e-03 -2.90309498e-03 -1.02441711e-02
      -1.17995180e-02 4.68907366e-03 9.33107920e-03 1.19672948e-03
      3.01887025e-03 4.95282048e-03 -4.90719639e-03 -5.42043475e-03
      -9.15882830e-03 -7.85607193e-03 2.92542833e-03 1.64029915e-02
      -2.94162123e-03 -6.87853852e-03 -9.04497318e-03 -8.03658552e-03
      -9.70059354e-03 -1.32765612e-02 -9.68847610e-03 8.93753301e-03
      1.15053291e-02 -1.23222603e-03 -2.46416777e-03 -1.72687543e-03
      -6.32658601e-03 -1.09519744e-02 -1.95995439e-02 -1.68659855e-02
      6.23630267e-03 1.55123370e-02 4.61584132e-04 1.51567016e-04
      1.13836571e-03 -9.70944064e-04 -1.14107784e-03 -4.04328480e-03
      -2.63779610e-03 1.59126706e-02 1.58788096e-02 -5.92875574e-03
      -1.77405048e-02 -1.63550042e-02 -1.75002161e-02 -1.60754547e-02
      -1.94089338e-02 -1.65562835e-02 1.40641872e-02 1.79728922e-02
      6.22888189e-03 -3.61560541e-03 -3.85059253e-03 -6.88332878e-03
      -4.81063128e-03 -5.39140543e-03 -5.04558068e-03 1.80719178e-02
      2.83988612e-03 -9.06284992e-03 -5.71026234e-03 -1.32548227e-03
      -3.87010723e-03 -1.89132662e-03 -4.31862846e-03 -4.95919539e-03
      9.26839840e-03 1.79036160e-03 -8.57017562e-03 -6.84292428e-03
      -1.53420703e-03 -3.11328843e-03 -1.08463624e-04 -1.54451013e-03
      -7.68414652e-03 7.25273788e-03 7.21485866e-03 -3.03146779e-03
      -8.83027073e-03 -4.27994737e-03 -7.46993860e-03 -5.23074344e-03
      -6.64450740e-03 -8.35395604e-03 6.70408877e-03 4.50930884e-03
      -9.82359867e-04 -6.76418748e-03 -2.29857396e-03 -5.12971031e-03
      -1.81087491e-03 -6.82981359e-03 -1.11655938e-02 -7.53517204e-04
      -2.28606747e-03 -6.10702904e-03 -2.53661722e-03 5.78644162e-04
      3.64814326e-03 3.96627234e-03 -2.59078861e-05 -3.87784233e-03
      8.30502715e-03 -1.62255799e-03 -1.49812726e-02 -4.93996451e-03
      -4.00154898e-03 7.89715501e-04 1.32692605e-03 -4.20507928e-03
      -7.95980357e-03 3.38120386e-03 5.09145856e-03 1.43798953e-03
      -2.70776567e-03 8.95465564e-05 -2.57277186e-03 -7.93560816e-04
      -5.61845955e-03 -9.33394302e-03 4.23285551e-03 2.07028410e-04
      -1.49966655e-02 -5.07695694e-03 -2.89954687e-03 -3.24993557e-03
      -1.86513807e-03 -6.71140244e-03 -8.74591060e-03 -4.18263255e-03
      -3.56540130e-03 -5.62759908e-03 -4.11425397e-04 -1.96735840e-04
      2.51197582e-03 2.44439207e-03 2.91831442e-03 1.00733934e-03
      8.46241321e-03 -4.77810716e-03 -1.06298355e-02 -2.74648145e-03
      -3.07945115e-03 -3.84820136e-03 -1.55030261e-03 -2.88052042e-03
      -4.31939354e-03 5.88180358e-03 5.08689741e-03 -1.40545955e-02
      -3.07724159e-03 -4.62315656e-04 1.71231711e-03 9.60490550e-04
      7.20782322e-04 1.21955876e-03 7.11683976e-03 4.70233290e-03
      -1.60289574e-02 -9.35435295e-03 -7.51732709e-03 -7.86181726e-03
      -5.53178461e-03 -4.47014626e-03 -7.19498657e-03 4.27435059e-03
      8.98406375e-03 -4.67521464e-03 2.18961365e-03 -2.26447912e-04
      5.83849801e-03 1.47797039e-03 3.25577683e-04 -1.57680176e-03
      1.99469663e-02 9.44073219e-03 -2.27492247e-02 -1.77244879e-02
      -1.26281008e-02 -4.98070475e-03 -2.06658593e-03 7.04897160e-04
      -2.66897678e-03 1.16998395e-02 1.85656101e-02 -3.32638388e-03
      -5.87844348e-04 -2.24095257e-03 -3.05664376e-03 -2.09273212e-03
      -1.61065802e-03 -9.21679253e-04 1.88079625e-02 1.06841801e-02
      -1.92185547e-02 -1.60379745e-02 -1.86076723e-02 -1.77851822e-02
      -1.61845405e-02 -1.27927475e-02 -5.22926310e-03 1.47644104e-02
      6.44765934e-03 -6.37002895e-03 -4.67050308e-03 -2.82413815e-03
      1.68597361e-03 4.27358958e-04 3.98799311e-03 -1.20968158e-04
      4.86070290e-03 -5.61392726e-03 -1.98393525e-03 -1.84294721e-03
      -4.70436760e-04 9.21208784e-03 -1.57764019e-03 1.65716338e-03
      2.93842255e-04 -1.22812102e-02 6.88977679e-03 -4.87253955e-03
      -9.10210889e-03 -1.21640572e-02 -8.12007114e-03 -4.25931951e-03
      3.50301131e-03 2.32503796e-03 1.52490102e-02 1.93347689e-04
      1.86909863e-03 -5.06657735e-03 -5.09557314e-03 1.32831642e-02
      -5.76253631e-04 2.04824214e-03 3.19584884e-04 -2.59947916e-03
      -1.00603551e-02 -8.17420427e-03 -3.39304516e-03 -2.74222251e-03
      6.85036555e-03 -2.73133302e-03 2.71431846e-03 2.94266990e-03
      -6.95854146e-03 -1.51611259e-03 -4.91472753e-03 -9.48302215e-04
      -3.72084719e-03 5.79132838e-03 -3.23081762e-03 1.73343276e-03
      -3.30207893e-03 -2.02514557e-03 -3.99672659e-03 -1.43463491e-03
      -6.36131619e-04 -1.22549664e-03 1.27759101e-02 -1.51295564e-04
      -2.10967541e-04 -3.07331351e-03 -3.20584048e-03 -2.11089547e-03
      4.44836402e-03 8.33563227e-03 3.20846011e-05 8.00219737e-03
      -2.59045628e-03 2.50899955e-03 -5.96250175e-03 -8.50597280e-04
      3.64928332e-04 -2.74412264e-03 -4.14801249e-03 -4.09822818e-03
      1.85446057e-03 -5.15552890e-03 -9.38958488e-04 -1.39552634e-03
      -5.50863857e-04 8.36039986e-03 -1.83821644e-03 -5.24127763e-03
      -4.29530442e-03 -3.47350910e-03 -8.03557876e-03 4.02051723e-03
      1.98579626e-03 1.19593018e-03 -1.15264838e-05 8.60069704e-04
      7.40034389e-04 -1.89490791e-04 2.79390230e-03 -3.50943930e-03
      1.88507047e-03 -4.35150601e-03 -4.51099972e-04 1.43104314e-03
      -9.17664357e-03 -6.00384641e-03 1.45438453e-03 5.83954761e-03
      -2.41577975e-03 5.13783842e-03 8.34231847e-04 6.15621775e-06
      7.21379463e-03 -1.47258653e-03 -2.91908765e-03 -2.72935489e-03
      -4.68544429e-03 -1.95636926e-03 6.08582376e-03 4.77804523e-03
      3.31751048e-03 4.41930583e-03 -1.76838227e-03 -4.31745686e-03
      -2.84613110e-03 -2.85931723e-03 -3.16264504e-03 2.53266981e-03
      5.88218623e-04 6.69967965e-04 -1.43471500e-03 -4.97627538e-03
      -1.82984979e-03 1.70322449e-03 6.07604906e-03 1.47200993e-03
      6.05779607e-03 5.35169092e-04 -2.86593474e-03 -3.72331287e-03
      -6.34391047e-03 -5.75179793e-03 -5.34372171e-03 -7.39251729e-04
      -7.92851672e-04 1.98618998e-03 1.11851329e-03 6.63228740e-04
      5.66252461e-03 1.04293588e-03 1.75964320e-03 -8.83032917e-04
      3.87259456e-03 -3.18934501e-04 1.43960933e-03 -4.36516711e-03
      2.10951269e-03 3.71131138e-03 7.34331785e-04 3.94408964e-03
      -1.39694108e-04 6.89785695e-03 4.43017855e-03 -8.99433624e-04
      -2.91345152e-03 3.83086363e-03 6.28259638e-03 -2.73188273e-03
      -2.38620234e-03 -1.32348796e-03 4.62736608e-03 6.99105440e-04
      1.80457986e-03 -1.56668702e-03 3.62863531e-03 4.04426269e-03
      1.79611437e-03 2.15954380e-03 -1.05135934e-03 1.81457715e-03
      -4.59214952e-03 -7.32724648e-03 -7.56941503e-03 -2.97027011e-03
      -5.57618821e-03 -4.85988188e-04 2.31719669e-03 -9.58066899e-03
      -6.19467488e-03 6.60341047e-03 1.22811771e-05 -3.76375392e-04
      -1.77028461e-03 -7.68491486e-03 -8.95273406e-04 6.17450336e-03
      -1.72961503e-03 -5.18247485e-03 5.60691021e-03 -1.66551780e-03
      -1.14206190e-03 -2.12763716e-03 -8.59101862e-03 -8.34640174e-04
      -9.68146895e-04 -1.18084420e-02 -9.99718904e-03 8.85567628e-04
      -3.30283516e-03 -2.75858259e-03 -4.25252179e-03 6.96677365e-04
      9.67099983e-03 9.90550965e-03 7.85480440e-03 -4.21456899e-03
      -4.16010851e-04 -4.10092855e-03 -3.98371415e-03 -7.27352686e-04
      -1.21351797e-02 7.29310850e-04 4.59401449e-03 -5.78443287e-03
      -8.73327721e-03 -2.07734038e-03 -5.48844342e-04 7.82172778e-04
      -3.79409478e-03 -4.64302767e-03 1.61082931e-02 1.09185874e-02
      -8.24989751e-03 -1.30641870e-02 -6.24450622e-03 2.36689951e-03
      1.72584795e-03 -6.39241328e-03 -8.20734818e-03 7.69557012e-03
      5.47958771e-03 -7.72526395e-03 -1.12209814e-02 -2.36296142e-03
      -6.39616232e-03 -6.64394675e-03 -6.53088000e-03 -1.20501984e-02
      1.12450309e-02 1.06354943e-02 -9.09864623e-03 -1.92747116e-02
      -7.65408995e-03 -7.89498817e-03 -7.72334682e-03 -1.29539054e-02
      -2.62757810e-03 1.82978399e-02 1.63364597e-02 -4.05577337e-03
      -8.95676669e-03 -6.17588405e-03 -5.94186829e-03 -6.88672019e-03
      -5.76852495e-03 -3.85513972e-03 1.22437049e-02 1.59817692e-02
      -4.18437994e-04 -6.30513020e-03 -4.84989723e-03 -3.87154100e-03
      -7.77638424e-03 -7.86785781e-03 -1.38310594e-02 1.24775320e-02
      1.39915515e-02 -5.15806163e-03 -6.41004601e-03 -5.28422836e-03
      -6.89634681e-03 -1.12226708e-02 -1.72874257e-02 -1.55639872e-02
      -3.28682887e-04 3.49031505e-03 -5.00909984e-03 -7.17819901e-03
      -4.53590602e-03 -6.06259936e-03 -1.23298550e-02 -2.21587270e-02
      7.89185800e-03 9.60705616e-03 1.76394042e-02 5.15038334e-03
      9.37029428e-04 -1.82177918e-03 1.23002654e-04 -4.59332578e-03
      6.03146525e-03 -2.17011478e-03 -3.83276306e-03 -2.12053186e-03
      1.14799421e-02 -3.49256280e-03 -3.57534830e-03 -5.30088600e-03
      -3.89803248e-03 -1.70045043e-03 -1.74641889e-02 -4.71732020e-03
      2.12472631e-03 -1.29957218e-03 -1.95222441e-03 -9.56872304e-04
      -5.49073936e-03 -1.00059751e-02 -1.62728596e-02 -1.47325378e-02
      -7.90002849e-03 -2.80388677e-03 7.97078852e-03 -2.83842091e-03
      1.68218114e-03 -2.15997011e-03 -7.65354885e-03 -1.03084333e-02
      1.73585266e-02 -2.75518489e-03 7.31885200e-04 6.46791607e-03
      -8.94315168e-03 2.69866396e-05 -2.12300962e-04 1.46964903e-03
      1.65251233e-02 2.26081721e-02 -6.58422522e-03 -6.97363028e-03
      -7.90260080e-03 -1.09804804e-02 -3.51072219e-03 -1.04549923e-03
      -2.67044571e-03 2.18454003e-02 -1.24816811e-02 -7.93371629e-03
      -2.68572057e-03 5.11156721e-03 -7.92719051e-03 3.11043463e-04
      3.22042662e-03 -4.94390493e-03 -8.31593759e-03 -8.81501380e-03
      -9.13668703e-03 -6.29910827e-03 3.28525482e-03 -8.09391215e-03
      -3.39259300e-03 -1.32072601e-03 -8.82423390e-03 -1.17419809e-02
      2.65306551e-02 -4.83778911e-03 -1.76503472e-02 -1.75851565e-02
      -1.32571030e-02 -9.55030508e-03 -7.79071881e-04 1.33256355e-04
      3.24567929e-02 2.78570633e-02 8.03782698e-03 -1.73202611e-03
      -3.17182532e-03 -4.36103996e-03 6.90960616e-04 2.04819240e-04
      -3.16891656e-03 2.81201936e-02 -9.74725559e-03 -6.62746374e-03
      -6.68882439e-03 -8.38301331e-03 -9.16192587e-03 -7.93101732e-03
      -2.58565950e-03 -8.71330500e-03 -1.54876821e-02 -1.00646922e-02
      -1.07653057e-02 -5.16789733e-03 -4.25901730e-03 -5.11893863e-03
      -2.91795214e-03 -6.70853816e-03 -1.35085862e-02 -1.36052761e-02
      1.97851248e-02 3.72588588e-03 -8.50021548e-04 -1.61402347e-03
      -3.05573968e-03 -1.36038638e-03 -3.82570620e-03 -3.34692071e-03
      2.02398840e-02 1.60166007e-02 8.02257273e-04 -2.50340416e-03
      -5.35346153e-05 -1.87168852e-03 -6.83450722e-04 -4.04651742e-03
      -1.60922983e-03 1.79943815e-02 -1.49867879e-02 -1.99777801e-02
      -7.45216710e-03 -1.74940494e-03 -3.89308087e-03 -4.99949139e-03
      -8.83566681e-03 -1.56164058e-02 -1.62178501e-02 -1.59301832e-02
      -2.25939862e-02 -8.35419167e-03 -7.75506778e-04 -2.52555381e-03
      -3.32687167e-03 -8.47958680e-03 -1.39255151e-02 -1.33407274e-02
      1.59859657e-02 5.05839428e-03 7.40629912e-04 3.16683878e-03
      -3.47967143e-04 7.58651237e-04 -2.00582575e-03 -2.32046517e-03
      1.86609384e-02 1.05340537e-02 -4.38795844e-03 -5.23990835e-04
      2.11056555e-03 6.69319415e-04 5.27633063e-04 -2.01676483e-03
      -1.53464812e-03 1.04057360e-02 -1.81631893e-02 -1.65802948e-02
      -4.23068088e-03 1.06310006e-03 8.74512916e-05 1.07243808e-03
      -4.96017374e-03 -1.36603927e-02 -1.75828226e-02 -1.62319876e-02
      -1.68103576e-02 -5.77023625e-03 -1.52731547e-03 9.41246632e-04
      1.92596321e-03 -5.21036796e-03 -1.63739603e-02 -1.50519293e-02
      1.00489054e-02 -6.85907947e-03 -1.27065170e-04 9.74886425e-05
      8.18323111e-04 6.88359316e-04 3.58571910e-04 8.84904468e-04
      1.62241552e-02 1.08594848e-02 -9.29099042e-03 -1.35228934e-03
      -2.56092823e-03 -5.01190685e-03 -4.22420539e-03 -2.10866309e-03
      -3.92687833e-03 1.25669884e-02 -1.57443583e-02 -1.66884996e-02
      -5.29218046e-03 -2.60697841e-03 1.14985043e-03 2.66546360e-03
      1.50802615e-03 -2.98819132e-03 -1.31335286e-02 -1.42557276e-02
      -2.04059407e-02 -7.34276138e-03 -5.28802106e-04 -1.94020383e-03
      -2.73842528e-03 -1.11739780e-03 -2.64744717e-03 -8.86018202e-03
      1.67123806e-02 -3.79328791e-04 2.90596462e-03 1.85868892e-04
      -2.38912040e-03 -3.79061466e-03 -2.65227538e-03 -2.28901207e-03
      1.90483648e-02 1.95335224e-02 -1.13280024e-03 -4.99467459e-03
      -1.43978791e-02 -1.23663200e-02 -1.54417446e-02 -1.40437065e-02
      -1.23797096e-02 1.43945934e-02 -6.97571435e-04 -7.84695428e-03
      2.06759595e-03 4.43745172e-03 1.33803498e-03 -1.15342985e-03
      -6.51204784e-04 -3.69067769e-03 4.78017237e-03 1.08084618e-03
      -1.06470939e-02 9.95900715e-04 -3.67657351e-03 1.81660894e-03
      -8.40133708e-03 9.68857566e-05 -1.07208611e-02 5.33932121e-03
      1.20749017e-02 2.30077232e-04 -8.89929244e-04 -6.87347865e-03
      -2.77530146e-03 1.04737468e-03 9.06552537e-04 -2.39949179e-04
      1.27965147e-02 -2.88228039e-03 4.19538301e-05 -1.09433674e-03
      -4.68289945e-03 -3.54144368e-06 4.36093006e-03 3.49895493e-03
      -1.27908227e-03 -3.54021788e-03 3.21967364e-03 -8.71224701e-03
      -1.49279804e-04 -1.74484984e-03 1.37272337e-03 6.31208485e-03
      5.19852946e-03 -3.58162425e-03 4.46173875e-03 1.74907572e-03
      -5.84684918e-03 -3.11529613e-04 -1.69464480e-03 3.52124509e-04
      7.48267816e-03 1.88763917e-03 -1.31072069e-03 2.21490301e-03
      -1.33047700e-02 -1.08679396e-03 -1.41376420e-03 1.66550069e-03
      7.64654658e-04 1.71970774e-03 1.76391320e-03 -2.60891882e-03
      -1.13885887e-02 -1.44398154e-03 6.34818384e-03 3.04669584e-03
      4.40146355e-03 3.72040085e-03 2.85217795e-03 5.53143676e-03
      -4.59230185e-04 -4.42471821e-03 -2.90280677e-05 -6.85233111e-03
      -2.36421893e-03 -1.80532155e-03 -5.35336207e-04 8.02285445e-04
      2.01755832e-03 1.55948626e-03 -1.40980002e-03 1.58133131e-04
      -2.72889296e-03 -1.87711103e-03 7.19516247e-04 1.96385686e-03
      1.26000354e-03 7.56287621e-03 1.15637193e-02 8.96993966e-04
      -4.87159099e-03 8.23034323e-04 -8.68596893e-04 9.06971545e-05
      -1.09062309e-03 -1.95771153e-03 8.98306258e-04 -1.76482042e-03
      -6.21728878e-03 -4.57888190e-03 -8.10815860e-03 -6.55849045e-03
      2.16773408e-03 4.64041438e-03 -1.79472938e-03 5.98016835e-04
      2.13084626e-03 -4.23568115e-03 1.94492477e-05 3.64258303e-03
      -3.84845329e-03 -5.60491404e-04 2.48050947e-05 -1.97567279e-03
      3.56995763e-04 2.02501984e-03 2.86777108e-03 1.67474337e-03
      7.77964201e-03 -4.84842947e-03 9.58420453e-04 -5.38288325e-04
      -1.41315380e-04 -1.43892970e-03 3.22417147e-03 1.27568631e-03
      -3.32967192e-03 -1.47358899e-03 2.49830890e-03 7.24530360e-03
      -8.91145843e-04 -7.09839631e-03 -7.35195004e-04 -7.65834120e-04
      1.17429288e-03 -5.50496439e-03 -2.09204014e-03 -2.49843462e-04
      9.30862851e-04 -1.43800816e-03 -4.96516144e-03 -5.11362823e-03
      -5.54360403e-03 -1.62666664e-03 4.79055196e-03 8.12272448e-03
      -2.52056820e-03 2.21731933e-03 -7.84636848e-03 -5.73759060e-03
      -3.13018821e-03 3.56671913e-03 3.39227635e-03 4.74947458e-03
      -6.37293051e-05 -5.59736555e-03 -2.85027036e-03 1.84885680e-03
      -1.48640061e-03 -4.81663086e-03 5.58118336e-03 4.75070812e-03
      6.29990944e-04 -7.74021377e-04 3.95065690e-05 2.97242729e-03
      2.30893842e-03 2.77939078e-04 -4.63164132e-03 -4.09631385e-03
      -3.81315826e-04 2.10054242e-03 2.91008200e-03 2.34559760e-03
      3.63363908e-03 -7.60663766e-04 -5.13107330e-03 -1.19904298e-02
      -1.11768767e-02 -2.36669369e-03 6.69234106e-03 -1.51348428e-03
      -1.91624765e-03 7.93007575e-03 7.92224053e-03 4.83375648e-03
      -3.40949721e-03 3.22121452e-03 5.02818869e-03 4.02824534e-03
      2.74625374e-03 1.51279254e-03 7.99699686e-03 4.85375430e-03
      -1.37267425e-03 -7.99457356e-03 -1.36649294e-03 1.00497506e-03
      -4.80674580e-03 1.33834512e-03 7.12570921e-03 -1.45160325e-03
      -2.64700199e-03 -3.90549074e-04 -5.26070362e-03 -2.63362774e-03
      -4.10516607e-03 2.17523426e-03 9.77708492e-03 1.03162462e-02
      6.03262917e-04 1.58802385e-03 1.74484868e-03 -4.11965325e-03
      -3.47740995e-03 -6.12245314e-03 -1.00445123e-02 -5.13467006e-03
      1.84494967e-03 8.13924824e-04 3.60920955e-03 5.12194959e-03
      -7.82423187e-03 -1.76498841e-03 -8.78419820e-03 -9.59059037e-03
      2.26096599e-03 3.58982268e-03 1.84933224e-03 9.77993663e-03
      5.48050134e-03 -1.22298393e-02 -8.64485931e-03 -1.23446165e-02
      4.99219447e-03 1.58714112e-02 1.42510254e-02 7.79148075e-04
      2.96654389e-03 1.10792117e-02 -2.49997433e-03 -2.83251749e-03
      -2.98765954e-03 -5.45694074e-03 1.66385062e-02 1.67456511e-02
      -2.34370469e-03 -1.16668250e-02 -1.38485630e-04 -1.42444938e-03
      -1.55351812e-03 -8.69553816e-03 -7.58330105e-03 5.93270129e-03
      8.28448497e-03 1.40740385e-03 7.74223730e-03 4.70190914e-03
      -1.69992857e-02 -1.10641485e-02 -1.10282274e-02 -5.01936860e-03
      -5.72298840e-03 -3.80314980e-03 -2.24177260e-03 -1.23845935e-02
      -5.67449490e-03 -1.27253914e-02 -9.55107249e-03 -1.13734640e-02
      -5.33581991e-03 1.69193652e-02 1.78333428e-02 -1.25920039e-03
      -1.64337363e-03 1.66478188e-04 9.06867255e-03 2.30444619e-03
      -7.28243589e-03 -7.44643528e-03 1.06942346e-02 1.03569003e-02
      1.50481577e-03 -1.69032405e-03 -6.16549340e-04 -1.10103807e-03
      -6.18087687e-03 -7.30912620e-03 -5.99787454e-04 -4.72083362e-03
      -2.43250863e-03 -3.38819949e-03 -3.44627001e-03 6.90619461e-04
      -4.05720202e-03 -2.79634283e-03 1.35557202e-03 8.29733256e-03
      -1.22752809e-03 -3.07836290e-03 -4.57888423e-03 -1.79172726e-03
      -5.78016322e-03 -1.15811685e-02 -6.96625607e-03 2.77598784e-03
      -3.42919352e-03 3.42552736e-03 5.75153530e-03 3.48238437e-03
      3.50727263e-04 2.22221320e-03 -6.98703283e-04 -4.07911930e-03
      -5.24670584e-03 -3.78754968e-03 -1.49722313e-04 5.30850561e-03
      5.36900759e-03 -4.15451964e-03 6.68922486e-03 6.01610867e-03
      -2.59260787e-03 -3.68356588e-03 7.64046144e-03 -3.91781284e-03
      -1.47230108e-03 2.74298625e-04 -1.64764089e-04 -3.70119675e-03
      -8.25756788e-03 -7.72057741e-04 7.59076606e-03 8.43753386e-03
      2.67982157e-03 3.88087472e-03 -2.78396439e-03 -7.28207268e-03
      -6.71760691e-03 -6.47933315e-03 -7.33442837e-03 1.00665288e-02
      -2.36293674e-03 -4.69618302e-04 1.87356700e-03 3.74830863e-03
      -4.13345499e-03 4.48756060e-03 4.80717933e-03 1.57268005e-04
      -1.60471804e-03 -2.71382421e-04 -9.99679469e-05 -1.41646859e-04
      7.47064711e-04 -6.21466618e-03 1.06269741e-04 1.57472224e-03
      -1.88735349e-03 -3.64329410e-03 1.06002158e-02 4.69973718e-04
      1.88621925e-03 -2.18013395e-03 -6.42049219e-03 5.33247832e-04
      -4.96749906e-03 -5.36773680e-03 1.36989672e-02 1.66024379e-02
      -1.68712670e-03 -6.88398210e-03 -6.33445801e-03 -8.90657771e-03
      -2.36496492e-03 -9.13273357e-03 -1.39351683e-02 1.50006488e-02
      4.58190590e-03 7.80473463e-04 -3.08404196e-05 -2.23172875e-03
      -1.05298460e-02 -2.62184325e-03 -1.75922900e-03 -4.27479576e-03
      -1.21764198e-03 7.78286066e-03 -4.51317057e-03 -1.56562834e-03
      -5.24863310e-04 -2.72687105e-03 -9.84932994e-04 -2.51188013e-03
      -5.26551902e-03 -1.35882141e-03 1.89406611e-02 -1.16780177e-02
      -1.77240465e-02 -7.85927568e-03 -1.19371144e-02 -7.79211428e-03
      -1.49329938e-02 -1.81464721e-02 1.70012563e-02 1.78133566e-02
      -2.38546934e-02 -2.25175451e-02 -8.13647918e-03 -7.43290270e-03
      -7.47771841e-03 -1.43041955e-02 -2.23216992e-02 1.64530780e-02
      5.93357719e-03 -6.14131102e-03 -2.04325723e-03 3.67367407e-04
      -5.80942491e-04 -9.67289787e-04 -1.68434565e-03 -3.51860980e-03
      -4.16814728e-04 2.07071123e-03 -6.24284754e-03 -2.77475757e-03
      -5.28462639e-04 -4.30988352e-04 -4.59673494e-04 -1.72378693e-03
      -2.56087678e-03 -3.90429428e-04 1.49566280e-02 -2.18253024e-02
      -2.13221163e-02 -3.64167476e-03 -2.52411864e-03 -7.37061352e-03
      -1.63489450e-02 -2.19483376e-02 1.59576610e-02 1.51594263e-02
      -1.61725264e-02 -2.32905243e-02 -7.60836806e-03 -3.51224048e-03
      -9.73714516e-03 -1.86224859e-02 -1.88930444e-02 1.51426392e-02
      2.82339449e-03 -4.43397881e-03 -2.82292138e-03 -4.29578766e-04
      -1.80296465e-05 -3.35368532e-04 -1.25565869e-03 -1.70452404e-03
      7.86272984e-04 2.35526892e-03 -3.19257402e-03 -3.45624122e-03
      -6.88809028e-04 -3.70279595e-04 -6.56257762e-05 -8.05896823e-04
      -2.32597138e-03 1.43088226e-03 1.20712835e-02 -8.39331001e-03
      -1.94658712e-02 -9.14551504e-03 -3.82053829e-03 -7.19750207e-03
      -1.71525981e-02 -1.70080345e-02 1.40585192e-02 1.19555462e-02
      -6.30804058e-03 -2.06263177e-02 -1.10070230e-02 -6.66674646e-03
      -8.15936271e-03 -1.73868909e-02 -1.44054107e-02 1.25561142e-02
      2.08794372e-03 -2.82844994e-03 -4.11468558e-03 -1.06704235e-03
      -7.06603052e-04 -3.56060977e-04 -9.15858604e-04 -4.22002020e-04
      1.87692826e-03 1.60337810e-03 -4.38007293e-03 -5.43115195e-03
      -1.33702951e-03 -6.45493390e-04 -5.56560000e-04 -9.41453967e-04
      2.00580759e-03 9.27066721e-04 1.19254095e-02 -7.47931143e-03
      -2.16694959e-02 -1.09616667e-02 -6.32219156e-03 -9.08485707e-03
      -1.70818176e-02 -8.05421546e-03 1.31147699e-02 1.12478696e-02
      -5.80302114e-03 -1.91399418e-02 -1.08236521e-02 -5.92538808e-03
      -9.12422966e-03 -2.28787046e-02 -1.28704710e-02 1.34944422e-02
      1.89087878e-04 8.89066141e-04 -2.03851098e-03 -1.17750640e-03
      -1.16542412e-03 -8.09140387e-04 -1.20023079e-03 -2.73475071e-05
      2.11641681e-03 1.33751973e-03 -2.40021240e-04 -3.67734930e-03
      -4.08957805e-03 -3.08629870e-03 -4.25623031e-03 -1.22281373e-03
      -8.82048742e-04 3.95115186e-03 1.28726931e-02 -8.79788306e-03
      -1.47834839e-02 -1.10966722e-02 -6.83768513e-03 -8.79915152e-03
      -1.82608496e-02 -9.41395015e-03 1.53172519e-02 1.36009175e-02
      -3.31029948e-03 -1.54944127e-02 -1.26581145e-02 -1.11517478e-02
      -1.12044504e-02 -1.94126610e-02 -1.05072604e-02 1.71654243e-02
      5.69889508e-03 -3.59502085e-03 -6.19317172e-03 -4.60786978e-03
      -1.06838439e-03 -1.69319019e-03 -1.34647626e-03 -9.89808235e-04
      6.45594206e-03 7.14510353e-03 -2.55581271e-03 -6.30829670e-03
      -3.66582372e-03 -1.22822111e-03 -3.83807928e-04 -3.19201383e-03
      -1.80806674e-03 6.08047331e-03 1.64178573e-02 -9.10037197e-03
      -1.69352628e-02 -7.46657839e-03 -2.79600057e-03 -8.62669013e-03
      -1.06416810e-02 -4.80690598e-03 1.40860863e-02 9.35565960e-03
      -6.43785810e-03 -1.39929811e-02 -4.72325832e-03 -3.65759316e-03
      -8.75899289e-03 -9.11194459e-03 -1.51399244e-03 1.02177598e-02
      5.76293701e-03 -3.15649644e-03 -6.42131409e-03 -4.30202810e-03
      -6.28812486e-05 -2.25517247e-03 -3.19252978e-03 1.51207985e-03
      4.81437147e-03 5.63061563e-03 -9.14975972e-05 -7.02180248e-03
      -4.21290472e-03 -1.15869322e-03 -1.92959630e-03 1.90934504e-03
      1.04026170e-02 6.42120140e-03 6.60587614e-03 -6.34526135e-03
      -1.34641388e-02 -5.94284153e-03 -2.20880308e-03 -3.55424872e-03
      -1.17997406e-02 -4.19979333e-05 6.80854963e-03 5.70511306e-03
      -1.66793726e-03 -1.07469345e-02 -1.00072864e-02 -6.33472716e-03
      -4.13921010e-03 -6.13300037e-03 5.24773635e-03 8.63223895e-03
      5.17668109e-03 -3.23294569e-03 -9.27732140e-03 -5.80458622e-03
      -6.22404972e-03 -3.25636333e-03 4.01519751e-03 1.32080531e-02
      5.93918934e-03 3.96649865e-03 9.40646138e-03 -3.29154078e-03
      -4.70071333e-03 -3.84367141e-03 -4.04447922e-03 -1.74855639e-03
      -2.06796522e-03 7.89170992e-03 2.47544143e-03 -3.41780996e-03
      -1.17884614e-02 -1.26616359e-02 -1.39031494e-02 -7.05946609e-03
      -1.38445653e-03 4.07509413e-03 7.93526974e-03 2.90170917e-03
      3.63898184e-03 -2.07603956e-03 -8.59024748e-03 -1.09012863e-02
      -1.05804848e-02 -9.23108216e-03 -4.99160960e-03 2.27105198e-03
      4.61643282e-03 6.77324459e-03 -4.58547287e-03 -4.97135473e-03
      -5.38521819e-03 -1.97108765e-03 -7.85167358e-05 1.63323001e-03
      3.55099910e-03 3.39641725e-03 1.86749981e-04 -9.62565839e-03
      -9.51969996e-03 3.27286334e-03 1.78746285e-03 7.83130759e-04
      8.02207459e-03 6.60085957e-03 -1.36357776e-04 3.04574170e-03
      -5.91615681e-03 -9.91041958e-03 -9.20692366e-03 -1.37576472e-03
      -3.90668958e-03 -3.30616720e-03 1.84253964e-03 5.49536955e-04
      -1.55420136e-03 -1.40952719e-02 -5.16243279e-03 5.37603255e-03
      3.63339530e-03 2.63211015e-03 2.67476938e-03 1.23835448e-03
      3.25334957e-03 -3.57829570e-03 -7.03980215e-03 -2.70208414e-03
      1.33073237e-03 2.36305618e-03 3.93442111e-03 8.28799419e-03
      7.20450375e-03 -3.11794691e-03 2.51007179e-04 -4.61418414e-03
      1.03464082e-03 -3.60219879e-03 -4.77494486e-03 -3.26711172e-03
      1.49711280e-03 2.29724147e-03 -8.76421283e-04 -4.42145392e-03
      -1.07064359e-02 1.76771684e-03 3.45820631e-03 4.78017516e-03
      3.81459878e-03 5.47516765e-03 4.75665787e-03 -6.97525591e-03
      -1.32021541e-03 -4.06114617e-03 -1.08888908e-03 2.42816377e-03
      -3.07680137e-04 1.07044168e-03 5.16048912e-03 1.37798605e-03
      -2.81681539e-03 -2.74282927e-03 6.20017061e-04 9.41949838e-04
      6.02408964e-03 8.94873496e-03 -1.02683793e-04 4.33698203e-03
      -2.06098845e-03 1.68145605e-04 -2.15045433e-03 -2.35164334e-04
      3.96547560e-03 9.29689966e-03 1.17136035e-02 -6.95550989e-04
      2.29933742e-03 -8.02460592e-04 -6.78357948e-03 -7.55462330e-03
      -6.44824607e-03 -8.14424641e-03 2.73186626e-04 5.42627368e-03
      -2.47768057e-03 1.19709969e-03 -2.64154631e-03 -1.97854126e-03
      -7.00134924e-03 -8.55889544e-03 -7.26748956e-03 5.92101505e-03
      1.48914792e-02 -1.14785845e-03 6.16975740e-05 1.45032507e-04
      7.54995458e-03 1.03916123e-03 -3.72284278e-03 1.14244490e-03
      6.94119278e-03 7.02888053e-03 -7.62907509e-03 -3.18688434e-03
      7.68468529e-03 3.45202163e-03 -2.33836891e-03 -5.99250756e-03
      -4.09682002e-03 -1.26388120e-02 -4.74987319e-03 -7.58815603e-03
      -4.63946862e-03 6.37129927e-03 3.23637458e-03 2.10716785e-03
      -4.10229526e-03 -8.13248288e-03 5.84680913e-03 9.97566991e-03
      -6.44738134e-03 -3.30524263e-03 4.41296166e-03 2.80855619e-03
      -2.26903451e-03 -6.14372222e-03 -8.69628042e-03 -6.21242356e-03
      -2.69260281e-03 -1.05793392e-02 -6.05567684e-03 2.88557867e-03
      9.93466284e-03 -2.80782697e-04 -8.28735251e-03 -1.04092769e-02
      -5.73910493e-03 -8.19123071e-03 -6.96909893e-03 -2.70195189e-03
      1.24068102e-02 1.38580380e-02 2.32169428e-03 -9.94003098e-03
      -1.00900969e-02 -5.88543667e-03 -1.09748458e-02 -9.73156840e-03
      -1.04166358e-03 1.59107726e-02 1.58672687e-02 6.05060766e-03
      -5.76716894e-03 -1.21785644e-02 -7.27518136e-03 -1.39639135e-02
      -1.16491811e-02 2.53346213e-03 1.36371972e-02 1.64543111e-02
      5.50749013e-03 -8.54675099e-03 -1.24142934e-02 -8.74507055e-03
      -1.08145894e-02 -9.41545889e-03 3.80987389e-04 1.60130691e-02
      7.58108264e-03 5.78339619e-04 -4.64586914e-03 -3.29172681e-03
      -3.13775195e-03 -6.79363031e-03 -9.11704637e-03 -1.28229847e-03
      9.23510920e-03 7.43629225e-03 2.65391241e-03 -3.85289197e-03
      2.57636770e-03 -5.65941166e-03 -8.93796794e-03 -9.20995232e-03
      -3.25253000e-03 6.76187966e-03 6.49818592e-03 1.45014399e-03
      -7.83840567e-03 -6.01114053e-03 -2.18744134e-03 -7.76319439e-03
      -9.84012708e-03 -7.36437563e-04 7.83086661e-03 6.43130066e-03
      -1.13249198e-03 -8.94373842e-03 -3.84139270e-03 -5.31260855e-03
      -5.51595911e-03 -1.01891896e-02 3.89746419e-04 7.32334750e-03
      8.66875704e-03 2.73255107e-04 -3.82857351e-03 -2.16165860e-03
      -4.79451474e-03 -4.89558326e-03 -9.47307702e-03 -1.59887411e-03
      1.16952807e-02 1.61879789e-02 -2.38415296e-03 -1.30287223e-02
      -6.89134281e-03 -5.10916626e-03 -5.23368595e-03 -1.44984471e-02
      -8.67940485e-03 1.49892969e-02 8.87659565e-03 -4.15287539e-03
      -1.00488644e-02 -3.94331198e-03 -5.70798200e-03 -7.57026207e-03
      -1.14560388e-02 6.86089217e-04 1.19602587e-02 1.77061707e-02
      -6.31148089e-03 -1.42695792e-02 -5.38581051e-03 -2.80089211e-03
      -1.54312998e-02 -2.11658478e-02 -6.70834258e-03 1.72528122e-02
      2.52802428e-02 -5.63027430e-03 -1.85838006e-02 -9.14550293e-03
      -1.00541906e-02 -1.07584177e-02 -1.69708598e-02 -8.90747085e-03
      2.48358380e-02 2.33562049e-02 -1.25720585e-02 -2.11362727e-02
      -1.34564834e-02 -1.26381274e-02 -1.63384639e-02 -2.16152761e-02
      -8.10977817e-03 2.26947293e-02 2.40754131e-02 -5.34430891e-03
      -1.79612394e-02 -1.02554047e-02 -8.72135907e-03 -1.71373039e-02
      -2.45200284e-02 -1.24798147e-02 2.62713078e-02 1.95852090e-02
      -9.36324429e-03 -2.19658203e-02 -1.70390848e-02 -1.61524247e-02
      -2.27405485e-02 -2.35213973e-02 -6.78747054e-03 2.41128523e-02
      2.42770091e-02 -7.35212862e-03 -1.81830917e-02 -7.06524961e-03
      -6.88520260e-03 -1.32757043e-02 -2.06239242e-02 -9.83944256e-03
      2.26418804e-02 2.20852755e-02 -2.06802110e-03 -1.86397471e-02
      -9.31994803e-03 -8.52865353e-03 -1.57287940e-02 -2.58460734e-02
      -1.22764381e-02 2.07246784e-02 2.30741650e-02 -2.60214950e-03
      -1.84628405e-02 -1.10338908e-02 -1.04856817e-02 -1.64929070e-02
      -2.43141633e-02 -1.03318356e-02 2.33280566e-02 2.24132407e-02
      4.95215645e-04 -2.00713649e-02 -1.55454921e-02 -1.51866591e-02
      -1.92789640e-02 -2.54234597e-02 -1.17993355e-02 2.31344569e-02
      2.06475947e-02 2.02625967e-03 -1.85351763e-02 -1.10340929e-02
      -9.30405036e-03 -1.21131381e-02 -2.40187906e-02 -8.94923415e-03
      1.92495398e-02 1.88673958e-02 2.97927298e-03 -1.84552651e-02
      -1.34377470e-02 -1.12006068e-02 -1.34714153e-02 -2.28735302e-02
      -7.34949857e-03 2.22893488e-02 2.21811067e-02 8.09103483e-04
      -1.93526391e-02 -1.40394038e-02 -1.39519833e-02 -1.51248276e-02
      -2.39230860e-02 -8.04584287e-03 2.66841929e-02 2.28171051e-02
      7.02972291e-04 -1.95597894e-02 -1.54073872e-02 -1.16602806e-02
      -1.68853216e-02 -2.54083928e-02 -1.24790603e-02 2.36361120e-02
      2.03820933e-02 8.12311366e-04 -1.83031484e-02 -1.25923958e-02
      -1.04972422e-02 -1.56808142e-02 -2.37361565e-02 -6.45973487e-03
      2.15154495e-02 2.32999306e-02 1.21717493e-03 -1.65105816e-02
      -1.25509175e-02 -9.94210690e-03 -1.44141680e-02 -2.24829707e-02
      -1.27654253e-02 2.22268123e-02 2.53143162e-02 -2.96447380e-03
      -1.67967603e-02 -1.09617850e-02 -1.11792013e-02 -1.90484747e-02
      -2.69545764e-02 -1.42949596e-02 2.34298483e-02 2.32513547e-02
      -8.17139726e-03 -1.75266974e-02 -1.06021147e-02 -1.25227552e-02
      -1.70052852e-02 -2.29499377e-02 -1.48152877e-02 2.48734076e-02
      2.18218211e-02 -5.45574911e-03 -1.76465139e-02 -1.25833973e-02
      -1.13163227e-02 -1.42601952e-02 -2.31218152e-02 -9.46243294e-03
      2.53161713e-02 2.25718226e-02 -4.01777960e-03 -1.61622707e-02
      -9.65777319e-03 -1.11885509e-02 -1.60931144e-02 -2.37495713e-02
      -9.88065824e-03 2.63980981e-02 2.63121445e-02 -1.15712350e-02
      -2.13988759e-02 -1.48692196e-02 -1.29341409e-02 -1.55044235e-02
      -2.28656996e-02 -1.21474005e-02 2.39104498e-02 2.32643355e-02
      -8.65999795e-03 -2.02082414e-02 -1.19818402e-02 -1.26612354e-02
      -1.58263259e-02 -2.39471737e-02 -1.04800966e-02 2.30071805e-02
      1.98206976e-02 -5.70905302e-03 -1.34947719e-02 -2.41999840e-03
      -3.66820698e-03 -1.15592862e-02 -1.99263170e-02 -7.19885482e-03
      1.82869155e-02 1.43586323e-02 -5.28792525e-03 -1.02383941e-02
      -1.67824025e-03 -5.03917737e-03 -1.09690661e-02 -1.08287977e-02
      -8.10489524e-04 1.54231843e-02 1.76866092e-02 -6.27697213e-03
      -1.50877507e-02 -5.75124379e-03 -5.55973593e-03 -6.81333849e-03
      -1.94351953e-02 -1.03685670e-02 1.51555035e-02 1.01019638e-02
      -3.46509088e-03 -7.71474559e-03 -1.38325279e-03 -5.75883547e-03
      -6.10072725e-03 -1.35203358e-02 -6.14642771e-03 9.89099964e-03
      8.31721723e-03 -2.66704685e-03 -8.69699288e-03 -5.36921341e-03
      -4.12035128e-03 -5.05262939e-03 -9.64403618e-03 -8.82336113e-04
      1.09428857e-02 1.04684513e-02 1.30754744e-03 -6.84905332e-03
      -7.55270757e-03 -2.96204002e-03 -3.54694785e-03 -8.56065936e-03
      -1.49687508e-03 8.71372502e-03 8.42764601e-03 -8.42736394e-04
      -6.53625745e-03 1.17770070e-03 -4.64122975e-03 -7.45371776e-03
      -1.15621062e-02 -4.44880687e-03 8.78911372e-03 8.35351273e-03
      1.63072383e-03 -7.18508055e-03 -5.10969339e-03 -2.65622674e-03
      -7.14659831e-03 -1.15438737e-02 -5.73386904e-03 8.35110620e-03
      1.53781231e-02 2.71260994e-03 -7.06481840e-03 -1.29529443e-02
      -8.16879794e-03 -4.61259298e-03 -1.67444430e-03 7.40446616e-04
      1.50881195e-02 1.36403274e-02 6.76224008e-03 4.14554635e-03
      -6.06358284e-03 -1.01443073e-02 -1.20110447e-02 -8.27594660e-03
      -2.49620900e-03 8.81657377e-03 1.16264680e-02 5.62440779e-04
      -4.71035996e-03 -1.06855268e-02 -4.23089601e-03 -1.08046122e-02
      -1.08964853e-02 -8.80599301e-03 9.00080521e-03 6.51419396e-03
      2.55018915e-03 -4.49681655e-03 -6.86648348e-03 1.31980414e-04
      -8.64095148e-03 -7.81827886e-03 -1.09985843e-02 4.47468227e-03
      4.91424417e-03 4.79272800e-04 -1.71973743e-03 -4.65837307e-03
      -1.08119696e-02 -3.29415710e-03 -8.72813072e-03 -5.13717718e-03
      4.35081217e-03 2.97665829e-03 1.88128813e-03 -1.95520301e-03
      -4.44009807e-03 3.38070584e-03 9.20701399e-03 -4.55940748e-03
      -2.58904323e-03 5.41264703e-03 2.96746008e-03 -8.70981370e-04
      -4.01071692e-03 -1.48707314e-03 -1.25393718e-02 -5.57108363e-03
      -8.92684981e-03 -7.13763852e-03 4.70122183e-03 3.10605578e-03
      6.21459971e-04 -2.50385166e-03 2.63446919e-03 4.40800330e-03
      5.35611948e-03 -8.59698839e-03 -4.78013651e-03 3.85455717e-03
      9.48745117e-04 -2.72470107e-03 -5.16650360e-03 -3.10585205e-03
      3.37707042e-03 1.17752114e-02 3.15890684e-05 -1.57877035e-03
      1.86444144e-03 -4.39201109e-03 -4.61030938e-03 -4.54533799e-03
      -7.83616211e-03 1.41685631e-03 6.98220218e-03 8.87687027e-04
      8.77287166e-05 -3.28897359e-03 -5.23746829e-04 -2.73787347e-03
      -8.15013947e-04 4.66949120e-03 1.09541342e-02 9.83550027e-03
      -4.02117032e-04 -3.74220894e-03 5.94393874e-04 -5.89165697e-03
      -4.22261050e-03 -6.23189335e-05 -3.56228265e-04 4.86152293e-03
      8.94594472e-03 2.41454411e-03 1.89730176e-03 -5.92882186e-03
      -6.33179164e-03 -2.58041522e-03 -5.74787334e-03 -4.44980571e-03
      1.84663094e-03 3.22977244e-03 -3.99998762e-03 1.74712215e-03
      -1.28125714e-03 -4.39271610e-03 -4.26783506e-03 -1.11493561e-02
      -3.10639781e-03 4.50850185e-03 7.53421709e-03 2.87947222e-03
      4.43941355e-03 2.72072712e-03 -1.24314521e-03 7.32521235e-04
      -6.02876535e-03 1.41126839e-05 -3.72333708e-03 -3.80521803e-03
      -1.69146678e-03 3.91596369e-03 1.75615808e-03 1.63220253e-03
      -1.41993689e-03 -6.15140283e-03 2.52752216e-05 1.06773397e-03
      3.39391059e-03 7.68687949e-03 1.04430933e-02 4.66358382e-03
      -3.01470933e-03 -2.26410409e-03 -1.07225422e-02 -6.14621397e-03
      9.25098825e-03 8.82062595e-03 5.88404480e-04 3.66595737e-03
      1.54443737e-03 5.81359142e-04 8.33591563e-04 -7.24771013e-03
      -1.04852915e-02 -4.64380439e-03 -3.48485890e-04 -5.54942572e-03
      -5.26743289e-03 1.84572476e-03 3.64015554e-03 -4.55665227e-04
      -8.23608506e-03 -7.02413684e-03 5.64485230e-03 4.43494413e-03
      3.60618951e-03 1.27950963e-02 7.13999895e-03 2.50584679e-03
      8.34735110e-03 -2.58845254e-03 -7.66494358e-03 -5.92507841e-03
      -2.90399184e-03 -4.62859782e-04 2.01240834e-03 9.43335996e-04
      8.19176342e-03 5.71273314e-03 -4.31498187e-03 -9.49598942e-03
      -1.20922066e-02 -1.18244905e-02 -1.18702911e-02 -4.90489649e-03
      1.91936968e-03 6.08598627e-03 3.29790637e-03 -8.45118333e-03
      -1.19691985e-02 -1.03999982e-02 -7.21520698e-03 -4.39143181e-03
      3.32476426e-04 7.49126729e-03 5.29499957e-03 1.17683038e-02
      1.09237258e-03 -6.70058699e-03 -1.02470638e-02 -8.13765358e-03
      -4.10296675e-03 -1.94737699e-03 1.13228420e-02 4.71845875e-03
      4.52444889e-04 -5.51127037e-03 -6.83684740e-03 -5.68192545e-03
      -2.83895782e-03 3.06405636e-05 1.46496696e-02 4.04503476e-03
      6.24487689e-03 1.95991970e-03 -1.13843475e-02 -8.89395550e-03
      -3.48988245e-03 -4.34315018e-03 -7.37244356e-03 3.30560259e-03
      7.42761139e-03 6.55258261e-03 -4.77699004e-03 -1.49491038e-02
      -8.52094125e-03 -1.74873532e-03 -2.47184793e-03 -1.23031270e-02
      -1.03116478e-03 6.87356666e-03 3.43058701e-03 4.67722118e-03
      -5.40932454e-03 -6.24319585e-03 -2.24152161e-03 -1.04214728e-03
      -1.60022697e-04 1.04098162e-02 4.49975021e-03 4.57565533e-03
      -1.71312434e-03 -7.79136270e-03 -7.92648830e-03 -4.34578105e-04
      1.44066440e-03 -5.08649834e-03 2.98321899e-03 4.26788116e-03
      9.80913732e-03 -5.14327083e-03 -1.50485206e-02 -6.54562749e-03
      -2.28721299e-03 -7.81193515e-03 -1.06032779e-02 -2.02434068e-03
      1.05750682e-02 2.02437881e-02 -9.50300694e-03 -1.87974628e-02
      -9.38476063e-03 -2.32986780e-03 -1.08468775e-02 -1.18355090e-02
      -3.29404371e-03 1.59483571e-02 6.87805330e-03 -1.48891495e-03
      -7.31519843e-03 -4.66313260e-03 -8.73441459e-05 -1.90178037e-03
      -4.16130386e-03 -1.18769391e-03 6.92420406e-03 6.79516001e-03
      -3.31145292e-03 -8.25691875e-03 -7.20331958e-03 -4.13599279e-04
      -3.44218337e-03 -2.21519312e-03 -7.62281707e-05 6.86087459e-03
      1.46582900e-02 -7.36694597e-03 -1.72383040e-02 -1.16869938e-02
      -6.97729504e-03 -1.19012333e-02 -2.00781170e-02 -1.29979150e-02
      1.83173381e-02 1.29987486e-02 -7.44067132e-03 -1.47121334e-02
      -1.32387681e-02 -9.26126447e-03 -1.22279162e-02 -2.11227760e-02
      -1.12802815e-02 1.39710465e-02 5.57188084e-03 -1.73622614e-03
      -5.36018470e-03 -6.83687720e-03 3.71552724e-03 -4.90072090e-03
      -1.23195827e-03 -8.73605721e-04 8.04671925e-03 3.19713773e-03
      3.88375018e-03 -2.55396171e-03 -3.85924731e-03 -2.31228699e-03
      -2.19067303e-03 -1.88028894e-03 -2.20988574e-03 2.79454421e-03
      1.47725595e-02 -8.63061845e-03 -1.84498653e-02 -9.31100175e-03
      -6.24847692e-03 -8.56350828e-03 -2.08482016e-02 -1.14300167e-02
      1.64928958e-02 1.42315533e-02 -5.31892991e-03 -2.19409652e-02
      -1.13371210e-02 -9.29570105e-03 -1.08002499e-02 -2.18439437e-02
      -1.10125002e-02 1.53913796e-02 5.36264991e-03 -4.22940915e-03
      -5.89063205e-03 -2.50622793e-03 -8.82406079e-04 -1.08726183e-03
      -1.65396999e-03 1.75273465e-03 2.67895102e-03 2.41179601e-03
      -3.28920758e-03 -7.96168670e-03 -1.92631141e-03 -1.17101450e-03
      -1.69889955e-03 -3.16966302e-03 -1.28046738e-03 1.14948151e-03
      1.47549622e-02 -5.32789854e-03 -1.99556258e-02 -1.07111391e-02
      -8.00310448e-03 -7.88551383e-03 -1.78258382e-02 -1.22102303e-02
      1.51468730e-02 1.39173763e-02 -9.78408474e-03 -1.96411703e-02
      -1.09386528e-02 -6.13408769e-03 -8.36193841e-03 -1.85534339e-02
      -1.58516392e-02 1.62203982e-02 3.47668375e-03 -9.76055861e-04
      -3.68360383e-03 -1.35862373e-03 -9.30956739e-04 -1.45573332e-03
      -2.39772210e-03 -3.09784804e-03 1.46195048e-03 1.86081603e-03
      -5.14539704e-03 -5.73814800e-03 -1.41185883e-03 -6.38979662e-04
      -5.54959348e-04 -2.00050417e-03 -2.57784990e-03 5.22028364e-04
      1.65852737e-02 -1.46940295e-02 -2.11439338e-02 -6.95757801e-03
      -6.59424160e-03 -1.07028941e-02 -1.94783397e-02 -2.17514355e-02
      1.75863318e-02 1.67187732e-02 -2.06415076e-02 -2.15164740e-02
      -5.39858500e-03 -5.72089991e-03 -1.09347580e-02 -1.75569057e-02
      -2.27123518e-02 1.77726354e-02 2.64779152e-03 -4.74300561e-03
      -4.25517652e-03 -9.00458079e-04 -7.21932098e-04 -9.35434597e-04
      -3.31347599e-03 -5.49960556e-03 -1.80491223e-03 1.80657255e-03
      -9.47964657e-03 -3.92163452e-03 6.09358431e-05 2.08303245e-04
      -1.53710542e-03 -3.63373500e-03 -6.75305771e-03 7.33417051e-04
      1.64732374e-02 -2.27315538e-02 -2.19202135e-02 -9.34251584e-03
      -5.89790801e-03 -1.04967942e-02 -1.60705466e-02 -2.00147182e-02
      1.80633720e-02 1.71820130e-02 -1.51129067e-02 -2.10030247e-02
      -1.06151253e-02 -1.00422688e-02 -1.19792782e-02 -1.59035400e-02
      -1.84284430e-02 1.62286144e-02 4.33594082e-03 -7.18159787e-03
      -3.39546963e-03 -8.16585438e-04 -3.03888897e-04 -2.04289681e-03
      -3.62601946e-03 -7.00072804e-03 2.66513135e-03 3.87380878e-03
      -1.70648948e-03 -3.86287516e-04 -2.62752152e-03 -1.13557791e-02
      -6.92652818e-03 -4.71298909e-03 -9.15186480e-03 -4.98972775e-04
      1.78117808e-02 -5.52867772e-03 -8.56916606e-03 -5.79187507e-03
      -1.30740041e-02 -2.16823141e-03 -1.14227217e-02 -1.36016300e-02
      1.69934575e-02 1.35445418e-02 -4.64723725e-03 -1.50138768e-03
      -1.76322670e-03 -8.93573463e-03 -2.96267192e-03 -7.03026447e-03
      -6.47109514e-03 1.78740118e-02 3.26530053e-03 -1.06556283e-03
      9.63437371e-04 -8.25865776e-04 -1.22543192e-02 -4.31065075e-03
      7.48775201e-04 -4.25441889e-03 5.77819359e-04 -2.52461177e-03
      -1.11334864e-03 4.87646554e-03 7.99796602e-04 -7.87615683e-03
      -1.07556873e-03 9.19288211e-03 9.60397650e-04 2.35252921e-03
      1.03803817e-02 -2.46824906e-03 2.55493005e-03 -1.87499926e-03
      -7.79771293e-03 -4.42691054e-03 -7.80643336e-03 -4.26556077e-03
      1.27976742e-02 9.70620848e-03 -3.95532046e-03 -2.66739307e-03
      1.30131515e-03 -4.07399028e-04 -3.90653266e-03 -1.05059836e-02
      -4.19075042e-03 9.56859533e-03 -3.10921227e-03 4.30375367e-04
      7.85590615e-03 6.05629932e-04 -7.43424660e-03 4.74423915e-03
      8.80117808e-03 6.96153031e-04 4.27462131e-04 -4.66637965e-03
      -2.10977788e-03 3.41630820e-03 1.24714244e-03 -3.18088033e-03
      8.76852777e-04 -6.70159294e-04 -2.57518166e-03 -3.84572591e-03
      9.58971959e-03 -3.06530949e-03 -1.08276436e-03 -5.69334906e-03
      1.24005286e-03 -9.62317921e-03 -1.30398143e-02 -9.58376843e-03
      6.87175570e-03 2.80670496e-03 -6.22668769e-03 -3.47175612e-03
      -4.03298950e-03 3.68840154e-03 -4.15591523e-03 -3.19376611e-03
      -9.46281571e-03 3.44043178e-03 -8.80794320e-03 4.50897450e-03
      7.25192903e-03 -2.67859339e-03 -2.89465277e-03 -5.05612791e-03
      -6.81266142e-03 -1.17763914e-02 -1.02303214e-02 -1.12411128e-02
      2.18954701e-02 1.65915415e-02 1.28611061e-03 -2.20476068e-04
      2.24647796e-04 8.50907713e-03 -1.28818653e-03 -1.35425478e-02
      -2.98436661e-03 -7.79217668e-03 -3.74114397e-03 -4.30081651e-04
      -8.86614900e-03 -6.34588208e-03 -1.00669898e-02 -1.09848222e-02
      -9.27787926e-03 -4.35625669e-03 -6.18819322e-05 5.97441476e-03
      7.16346432e-04 5.76068042e-03 1.67757610e-03 -1.54921431e-02
      -1.07257804e-02 -7.73844449e-03 -5.81103470e-03 1.67439599e-02
      1.79131012e-02 -9.45989625e-04 -9.97668132e-03 -2.56812107e-03
      -2.52460875e-03 -4.20172978e-03 -1.03834914e-02 8.96856561e-03
      1.54510019e-02 1.51921632e-02 -3.29341786e-03 2.03579594e-03
      5.46839414e-03 -4.42617573e-03 -4.30553686e-03 -4.49866429e-03
      -9.88121424e-03 -2.06445996e-03 5.64259430e-03 3.47392121e-03
      1.18362512e-02 1.88932521e-03 -8.49632826e-03 -9.05827340e-03
      -1.10883415e-02 -1.36160478e-02 -7.57377734e-03 6.28413749e-04
      1.73836283e-03 6.02545310e-03 5.73965162e-03 -6.61170483e-03
      -3.03022680e-03 -1.14371572e-02 2.14232784e-03 9.46568139e-03
      9.90336388e-03 -6.99896540e-04 3.04917688e-03 5.47519536e-04
      -5.03824698e-03 -3.04289255e-03 -3.98412626e-03 -5.72660426e-03
      6.34380057e-03 6.91609923e-03 1.98344700e-03 3.11210332e-03
      -1.00570156e-04 -8.48539453e-03 -2.22448143e-03 -6.25270512e-03
      3.33298254e-03 3.30176903e-03 1.34244165e-03 6.89458009e-03
      -3.85254878e-03 -2.92671123e-03 -4.64562699e-03 4.32313012e-04
      2.62642349e-03 8.96958448e-03 7.95605942e-04 2.17998051e-03
      5.12592401e-03 7.35464552e-03 3.74697382e-03 2.20273621e-03
      4.78135608e-03 5.53908711e-03 2.60261120e-03 4.14883578e-03
      4.04268270e-03 5.27192513e-03 -1.90866168e-03 -4.48225765e-03
      -1.20267561e-02 -1.18260114e-02 -2.64155818e-03 1.53432367e-03
      2.29034619e-03 4.88244882e-03 4.68604919e-03 6.03320729e-03
      -5.68103103e-04 -8.56056344e-03 -1.02071287e-02 -3.57677438e-03
      9.79891233e-03 -1.57162652e-03 -7.47560943e-03 -7.17994897e-03
      1.06881966e-03 -4.86373948e-03 -1.40565238e-03 6.98276609e-03
      8.81785247e-03 8.54574237e-03 8.06202739e-03 -4.58124187e-03
      -4.07213671e-03 -7.78508047e-03 -8.73363949e-03 -2.23463913e-03
      -2.03730911e-03 6.19085133e-03 -6.14615576e-03 -1.96986692e-03
      -4.29341366e-04 -5.02171693e-04 4.97127825e-04 -6.93981769e-03
      -7.23916525e-03 -9.58937593e-03 -9.46258195e-03 -5.40696271e-03
      9.98192001e-04 6.71030395e-03 1.15156043e-02 -2.15642760e-03
      -9.77942161e-03 -4.64145764e-04 -4.48593171e-03 -4.43324493e-03
      4.87911655e-03 1.71257497e-03 -4.22272598e-03 -2.44327355e-03
      -2.46157055e-03 -2.38038274e-03 -2.03791657e-03 -2.92900344e-03
      3.47211235e-03 1.29923690e-03 3.94156808e-03 -7.26905791e-03
      1.48529551e-04 -2.26347428e-03 -3.48429219e-03 -2.19183299e-03
      3.89045663e-03 6.60484331e-03 -7.19976751e-03 -9.07691289e-03
      -4.01012274e-03 6.46809023e-03 1.00295653e-03 -1.20603200e-03
      1.20996137e-03 -1.66097714e-04 -3.42529430e-03 -7.62991700e-03
      -2.48363544e-03 -3.18359188e-03 1.55757577e-03 -1.55598018e-03
      -2.94151437e-03 9.05097462e-04 -2.66028382e-03 -6.77261129e-03
      3.16992495e-03 2.17911834e-03 -6.09377120e-03 7.01513636e-05
      -1.15812919e-03 -2.13829661e-03 7.27168750e-04 1.07860779e-02
      3.83314863e-03 3.10488930e-03 -6.77701179e-03 -1.11301569e-02
      -4.03555157e-03 1.20757427e-03 -2.22225930e-03 -2.41404516e-03
      5.03379293e-03 2.70659191e-04 -5.10178041e-03 4.89943847e-03
      1.99744548e-03 5.31213032e-03 2.28154869e-03 -5.78038744e-05
      5.00045251e-03 -4.10493638e-04 -4.22270875e-03 -1.91936642e-02
      -4.04472975e-03 -2.86928145e-03 2.30643852e-03 9.15810524e-04
      3.48599860e-04 4.17996111e-04 -2.33627786e-03 -1.22274812e-02
      5.82290068e-03 -5.88173047e-03 -7.16342498e-03 -1.54901878e-03
      -1.23095842e-05 8.36855033e-04 -3.39058298e-03 -2.49692216e-03
      4.28288663e-03 4.41446248e-03 -3.06193368e-03 -2.90221442e-03
      -3.53282969e-03 -2.14002864e-03 8.00926879e-04 -5.04517113e-04
      -4.63380385e-03 4.83474554e-03 -1.06635708e-02 -4.25049011e-03
      -2.35503376e-03 -3.48668988e-03 -7.43399200e-04 4.20952309e-03
      3.69310868e-03 1.50819425e-03 -5.07909385e-03 1.25665637e-02
      -1.22377148e-03 -1.04799017e-03 -8.80835578e-03 -6.23888103e-04
      1.54457369e-03 1.61274709e-03 -2.66284856e-04 1.19813858e-02
      1.55960803e-03 -2.73644662e-04 -4.84907581e-03 -9.99455340e-03
      -1.12415908e-03 -7.77763687e-03 1.24095601e-03 -5.28256828e-03
      3.29197128e-03 -5.90955751e-05 1.88909401e-03 5.02267096e-04
      -8.75274709e-04 2.61160079e-04 1.74269255e-03 1.74616685e-03
      -1.00327227e-02 1.79315149e-03 2.34828368e-02 6.35802862e-04
      -3.45218438e-03 -1.61558650e-02 -6.36432460e-03 -1.45855248e-02
      -1.73650905e-02 -1.29740937e-02 1.39243202e-02 1.87232140e-02
      -7.76924018e-04 8.63622627e-05 -2.89639505e-03 -3.66534246e-03
      -6.33741915e-03 -6.76933955e-03 -6.23600837e-03 1.60404034e-02
      -1.21831084e-02 -1.27006844e-02 -5.21196378e-03 -3.57534410e-03
      -4.76171123e-03 -2.52306578e-03 -3.16463807e-03 -1.26141543e-02
      -1.13006448e-02 -1.21382754e-02 -1.69452056e-02 -5.60018234e-03
      -3.98070598e-03 -4.33541043e-03 -4.14262665e-03 -6.23988220e-03
      -1.30942287e-02 -1.19706728e-02 1.34288846e-02 -7.48527981e-03
      -4.50201659e-03 -4.98093758e-03 -5.63471764e-03 -6.24340214e-03
      -3.74229904e-03 -6.45345822e-03 1.61206573e-02 8.50423519e-03
      -1.08620888e-02 -2.41952576e-03 -2.47260625e-03 -3.54634342e-03
      -1.44381088e-03 -4.95997228e-05 -1.31985766e-03 1.65375099e-02
      -1.44164143e-02 -1.45611865e-02 -2.27159634e-03 -2.72736489e-03
      -2.29239697e-03 -4.07265685e-03 -6.25623250e-03 -1.48068666e-02
      -1.66938119e-02 -1.41868182e-02 -1.78243574e-02 -2.44729267e-03
      -4.82667517e-03 -3.86748812e-03 -3.98938404e-03 -4.77234973e-03
      -1.47169316e-02 -1.66571625e-02 8.59311968e-03 -7.76758697e-03
      -1.41293532e-03 -1.15484139e-03 -2.31836992e-03 -1.92677684e-03
      -8.01296672e-04 -1.37731119e-03 1.11801233e-02 1.92962904e-02
      1.12483231e-03 2.99409614e-03 -1.13343273e-03 -3.15090665e-03
      -3.66776297e-03 -1.80768839e-03 -4.40608244e-03 1.40858283e-02
      -1.77229438e-02 -1.46235647e-02 -5.63641544e-03 -5.40141668e-03
      -2.10235012e-03 -3.90241994e-03 -6.99569937e-03 -1.12951593e-02
      -1.99382566e-02 -1.76847819e-02 -1.57152470e-02 -7.50572421e-03
      -4.89970995e-03 -1.34105061e-03 -4.67386050e-03 -9.89452563e-03
      -1.28868511e-02 -1.98237393e-02 1.67391635e-02 6.67957182e-04
      2.05724660e-04 -1.50250108e-03 -2.66171549e-03 -2.63818563e-03
      -3.17637180e-03 7.17716990e-04 1.62084308e-02 1.58858113e-02
      -5.43862581e-04 -4.14482085e-03 -2.29527635e-04 -1.18199165e-03
      -1.21066580e-03 -3.37181357e-03 -9.98919641e-05 1.75451152e-02
      -1.23904133e-02 -9.86832008e-03 -3.86018958e-03 -3.14585702e-03
      -1.23601547e-03 -1.93687319e-03 -5.71745122e-03 -1.06297685e-02
      -1.31821847e-02 -5.74564189e-03 -6.02790155e-03 -4.33064904e-03
      -7.47429859e-03 -1.16209462e-02 -8.58807750e-03 -8.30084458e-03
      -1.32837417e-02 -1.20746270e-02 2.61386055e-02 3.34379845e-04
      -1.91546790e-03 -2.44430557e-04 -6.77297976e-06 9.47868102e-04
      1.36140603e-04 -1.82904711e-03 2.69666724e-02 2.45307721e-02
      -6.60905056e-03 -1.75838415e-02 -1.53013226e-02 -7.89987482e-03
      -8.34999792e-03 -7.36069400e-04 -3.71786882e-04 3.01213749e-02
      -1.28943352e-02 -7.30962912e-03 -3.12692160e-03 1.19004282e-03
      -1.01691093e-02 -1.19962869e-03 -1.43453595e-03 -8.35352670e-03
      -1.33751938e-02 -1.34435147e-02 -7.13073369e-03 4.09966073e-04
      6.22962555e-03 -1.18047893e-02 5.27291675e-04 5.02380915e-03
      -4.55636997e-03 -1.12302080e-02 2.15074141e-02 -5.12125390e-03
      -7.48533104e-03 -6.27261354e-03 -1.12176649e-02 -2.59791850e-04
      3.19610903e-04 -1.14990491e-03 2.12772079e-02 2.31267773e-02
      1.15375698e-03 -2.95936334e-04 6.76393416e-03 -9.41876229e-03
      -1.99018116e-03 2.83061294e-03 3.18468106e-03 1.75666716e-02
      -1.29808094e-02 -6.66575925e-03 -4.88074787e-04 6.59896387e-03
      -7.98025355e-03 1.93682651e-03 5.44822600e-04 -4.95770294e-03
      -9.98469628e-03 -1.84689965e-02 -8.93830042e-03 -6.98818476e-04
      -1.73077628e-03 -1.62842416e-03 -2.35921587e-03 -5.94134256e-03
      -9.14987270e-03 -1.29229445e-02 3.35698389e-03 -2.04017363e-03
      -1.49315014e-03 1.01938471e-02 -7.29111210e-03 -2.85596936e-03
      -6.15023822e-03 -2.79005058e-03 5.88790805e-04 5.96361561e-03
      6.07975945e-03 1.01313321e-02 6.17342349e-03 5.31549053e-03
      -3.51486146e-03 -3.63894366e-03 -3.98265012e-03 3.10745207e-03
      -2.21541878e-02 -5.43897413e-03 -1.35523337e-03 -2.95881392e-03
      -3.90080898e-03 -3.86960385e-03 -6.88296417e-03 -1.07899355e-02
      -1.91537850e-02 -1.84024367e-02 1.40573662e-02 1.55111533e-02
      -2.56096083e-03 -4.74972464e-03 -5.57796890e-03 -7.43990112e-03
      -1.30900340e-02 -2.35848147e-02 -4.24728217e-03 1.01667652e-02
      1.45750586e-02 5.03240502e-04 -3.89683177e-03 -3.29288468e-03
      -2.70433188e-03 -6.09495956e-03 -3.51393782e-03 -3.09833814e-03
      1.95807014e-02 1.89605840e-02 -2.25310586e-03 -9.98238847e-03
      -5.48253907e-03 -5.31775365e-03 -1.24119138e-02 -7.44514819e-03
      -1.05550718e-02 1.09093972e-02 1.45147005e-02 -5.01328800e-03
      -1.30965244e-02 -6.39139442e-03 -6.54436694e-03 -1.09701334e-02
      -1.45515474e-02 -4.89860494e-03 8.22839979e-03 7.87099823e-03
      -9.89966094e-03 -9.88302007e-03 -5.15918806e-03 -6.09191321e-03
      -8.94716941e-03 -8.32236651e-03 -5.83996391e-03 1.23213436e-02
      1.25945453e-02 -6.02310011e-03 -1.28665352e-02 -4.76502720e-03
      3.40148760e-03 -3.14077130e-03 -8.23529530e-03 -1.71605535e-02
      2.21693935e-03 7.35648163e-03 -5.67869563e-03 -9.16390587e-03
      -2.43498967e-03 2.49719527e-03 -7.05721613e-04 -7.29808118e-03
      2.47670757e-03 1.04527604e-02 1.07773030e-02 4.68929531e-03
      -5.00159804e-03 1.44808600e-03 -3.26443836e-03 -3.51417344e-03
      -5.49551914e-04 -8.86370055e-03 6.51592901e-03 4.42155218e-03
      -8.58077686e-03 -8.88158102e-03 -2.32502539e-03 -3.93370958e-03
      -2.36324593e-03 -5.89151215e-03 -1.22182677e-02 1.73578190e-03
      6.33719657e-03 5.96001104e-04 -5.86773548e-03 4.85183531e-03
      8.80113104e-04 -1.48898072e-03 -3.16984090e-03 -1.11832339e-02
      -5.37123671e-03 -1.81907939e-03 -1.19098704e-02 -7.75476033e-03
      6.92884903e-03 9.33137999e-05 -1.88439013e-03 -5.18551096e-03
      7.84540828e-03 2.86794407e-03 2.82677938e-03 4.63138567e-04
      -3.16324225e-03 -7.41901901e-03 -9.67575237e-03 -8.26625526e-03
      -9.34407697e-04 8.53560213e-03 1.57689815e-03 9.83892474e-04
      6.57059136e-04 1.26673665e-03 -2.08164193e-03 -6.75100950e-04
      -7.61437928e-04 5.11751696e-03 2.38782726e-03 6.10894233e-04
      2.10809149e-03 5.75392623e-04 2.23139161e-03 4.52295644e-03
      -1.02767677e-04 -1.16051163e-03 3.78472432e-05 6.97511667e-03
      6.41624501e-04 1.75588112e-03 -7.02616759e-04 2.60477629e-03
      7.99486693e-03 -6.90320856e-04 -3.10419151e-03 3.43668915e-04
      2.15258775e-03 -3.02659487e-03 -2.61964789e-03 -2.43078219e-03
      4.23702458e-03 -5.56426588e-03 1.40436646e-03 -1.82741170e-03
      2.76984926e-03 1.43505258e-05 -3.22299264e-03 -1.47871251e-04
      5.13843447e-03 8.26506130e-03 -4.01504198e-03 8.23868066e-03
      -1.41605514e-03 1.41436595e-03 3.72715585e-04 -3.22281988e-03
      -2.03141547e-03 -3.78806633e-03 -4.51089069e-03 -3.98039725e-03
      2.51952372e-03 1.31802913e-03 7.25177815e-05 2.29031639e-03
      -5.17817680e-03 -3.17688310e-03 -2.77413265e-03 -4.00617206e-03
      -5.49918367e-03 5.11157745e-03 2.64131860e-03 6.82855491e-03
      4.13035043e-03 -6.24180958e-03 -4.17357683e-03 1.95673434e-03
      7.23232189e-03 -4.20107460e-03 5.45187853e-03 -1.31751038e-03
      2.42397655e-03 2.35804147e-03 -8.19077250e-04 -2.33854400e-03
      -1.23735901e-03 8.37263186e-04 -3.97697883e-03 3.44222994e-03
      -2.01945193e-03 2.32413178e-03 9.37199406e-03 -6.22410653e-03
      -4.23927233e-03 -4.26658196e-03 -1.86264806e-03 -6.92542782e-03
      3.95158865e-03 3.00032698e-04 3.04966723e-03 3.66916670e-03
      -7.93902017e-03 -5.62401302e-03 -4.48356941e-03 -3.45900003e-03
      -5.89267164e-03 -3.77015327e-03 -7.97093753e-03 9.52069124e-04
      3.07644112e-03 3.04160523e-03 4.41413512e-03 3.38275381e-03
      6.94244867e-03 1.58695213e-04 1.67339784e-03 5.56062383e-04
      1.67232007e-03 -9.12711769e-03 -4.87932190e-03 3.89773375e-03
      2.19459622e-03 1.33503648e-02 1.05579640e-03 1.98442931e-03
      2.25796388e-03 -6.11695228e-03 2.39559892e-03 -7.31520681e-03
      -3.40197585e-03 -4.03986359e-03 6.72282977e-03 -1.29042263e-03
      2.09335616e-04 -2.69387546e-03 9.13317315e-04 -1.20075727e-02
      -9.77751520e-03 -2.58452585e-03 -4.77613416e-03 6.04048045e-03
      -1.44304102e-03 1.36504089e-03 -4.40672768e-04 -9.05904826e-03
      -6.07664976e-03 -3.85310245e-03 1.69964886e-04 -2.63878144e-03
      9.91031993e-03 2.11454742e-03 7.96607137e-03 5.81500959e-03
      -8.91331490e-03 9.60864592e-03 -4.50776098e-03 -6.38168678e-03
      -1.27753746e-02 -2.00429070e-03 -2.84025609e-03 7.86987972e-03
      4.94796038e-03 1.77806169e-02 -1.03975600e-02 -5.86156407e-03
      -1.97271351e-03 -3.36464960e-03 8.19438417e-03 -3.19993822e-03
      -1.20954530e-03 -2.45218421e-03 -1.60164032e-02 -9.95906885e-04
      -4.36367048e-03 -8.41328781e-03 -9.07696970e-03 4.37358208e-03
      -3.16558615e-03 1.56663114e-03 3.46995261e-03 1.91164610e-03
      1.19886650e-02 -1.47854220e-02 -1.67892054e-02 -2.03345884e-02
      -1.66235697e-02 -1.51787596e-02 -1.11747887e-02 -2.38594320e-03
      1.59808807e-02 1.95689071e-02 -1.45767524e-03 3.76435433e-04
      -8.99372622e-03 -2.65299343e-03 -5.63834514e-03 -5.13628917e-03
      1.43762445e-04 1.94976795e-02 3.02380836e-03 -1.83786750e-02
      -1.61389504e-02 -1.74394399e-02 -7.19573908e-03 -5.33530349e-03
      -2.77214125e-03 3.93003784e-03 1.38335237e-02 1.75508540e-02
      -1.11103551e-02 -1.47565303e-03 -5.77223301e-03 3.68126412e-03
      -1.38052506e-03 -3.26547190e-03 -2.63380609e-03 1.79748144e-02
      5.72904851e-03 -1.21025229e-02 -7.51835946e-03 -9.97346733e-03
      -4.97199409e-03 -8.58833175e-03 -5.05184941e-03 -6.99108373e-03
      8.36214330e-03 1.56384980e-04 -1.23657444e-02 -2.22039479e-03
      1.41103123e-03 9.09262046e-04 -3.29316710e-03 2.01073871e-03
      2.17901822e-03 3.44629190e-03 1.24884618e-03 -1.33471387e-02
      -8.30028113e-03 -5.55323809e-03 -5.53170172e-03 -4.19666059e-03
      -4.04738216e-03 -9.48613416e-03 8.89709312e-03 2.47934228e-03
      -7.04228552e-03 3.36414785e-03 8.63917638e-03 3.32133169e-03
      -2.03076750e-03 7.16144801e-04 4.98588721e-04 3.49756679e-03
      -4.88994410e-03 -1.43725974e-02 -8.49461835e-03 -3.12367012e-03
      -5.17136464e-03 -3.69367353e-03 -7.14692287e-03 -8.56492762e-03
      -4.63338150e-03 5.17994910e-03 3.26145055e-05 -5.76824322e-03
      3.21804342e-04 -5.09097381e-03 -2.24864809e-03 -6.89568371e-03
      -1.17517775e-02 -2.09003338e-03 -1.47295208e-03 -1.20717660e-02
      -5.12791425e-03 3.57537734e-04 -1.28188322e-03 3.43126303e-04
      -4.95224493e-03 -6.34768978e-03 -2.37453896e-05 6.07503625e-03
      -3.81180132e-03 -1.36193691e-03 7.33468914e-03 6.19688444e-03
      7.17486348e-03 -2.31968821e-03 -3.40021099e-03 4.80351551e-03
      6.79502916e-03 -2.29823939e-03 -6.09072810e-03 -2.35816720e-03
      -6.02038065e-03 -2.54947715e-03 -4.80724126e-03 -9.97311156e-03
      -6.11055037e-03 5.90699865e-03 -4.95438790e-03 -7.25177582e-03
      -5.86102717e-03 -8.35502241e-03 -6.77301548e-03 -5.67441341e-03
      -1.02643017e-02 -1.13012517e-04 5.75728249e-03 -4.92980424e-03
      -3.79375042e-03 1.37650364e-04 -4.79396340e-03 1.05389429e-03
      -2.08354858e-03 -6.81618461e-03 6.44426933e-03 5.72873047e-03
      -5.88126713e-03 -2.44996417e-03 -2.94873817e-03 -7.93757942e-03
      -2.67641083e-03 -2.95380573e-03 -6.64800452e-03 5.47533995e-03
      1.81048475e-02 -2.89954827e-03 -3.36973811e-03 -3.46287945e-03
      -5.88530581e-03 -4.12911922e-03 -3.65868956e-03 -4.47826553e-03
      1.46547230e-02 1.57535207e-02 -1.11862291e-02 -1.86693501e-02
      -1.39380991e-02 -1.78131908e-02 -1.52029358e-02 -2.00317036e-02
      -1.18436012e-02 1.74931958e-02 1.68642178e-02 -1.17460825e-03
      1.65409874e-03 1.72388344e-03 -4.24834387e-03 -8.62956804e-04
      -3.00429435e-03 -1.71954720e-03 1.61058754e-02 1.86597183e-02
      -3.17867729e-03 -5.01667382e-03 -1.75871898e-03 -1.52827865e-02
      -1.34479059e-02 -2.03967188e-02 -1.11677749e-02 8.12955014e-03
      1.76670011e-02 -4.92960215e-03 -1.08858077e-02 -7.45055359e-03
      -1.21163689e-02 -7.46859889e-03 -1.02477549e-02 -9.24591813e-03
      1.46315927e-02 1.38208456e-02 3.81352287e-03 -4.43505170e-03
      3.68186366e-03 -9.62965749e-03 -5.27891889e-03 -1.09077338e-02
      -1.32519146e-02 5.94786776e-04 1.94300152e-02 -1.56024355e-03
      -3.75184277e-03 -4.23908205e-05 -5.99118927e-03 -3.43317376e-03
      -1.14538707e-02 -1.06595522e-02 7.55556533e-03 7.90071208e-03
      3.98236886e-03 -2.17839866e-03 1.71397475e-03 -3.66177084e-03
      -4.25798586e-03 -9.75611620e-03 -1.50814131e-02 3.07967910e-03
      -3.23863211e-03 -5.88905532e-04 -2.30171159e-03 6.50781253e-03
      -3.52858217e-03 -7.01804785e-03 -9.99482814e-03 -9.89005342e-03
      -7.57217733e-03 -2.89874617e-04 6.70956448e-03 3.19798151e-03
      6.12702267e-03 3.20444978e-03 -3.50166718e-03 1.48372701e-03
      1.47313264e-03 1.68295554e-03 2.49635172e-03 1.04029721e-03
      5.54630969e-05 9.76621639e-04 -6.04240038e-03 -5.29531576e-03
      -8.06697365e-03 -8.98667146e-03 -1.61953957e-03 2.39990582e-03
      4.82229656e-03 2.35388218e-03 3.67408199e-03 -6.24583475e-03
      -4.13836958e-03 1.56978599e-03 3.55127803e-03 -2.19121328e-04
      -1.44003087e-03 1.06901536e-02 1.30987149e-02 2.87551316e-04
      -5.43106440e-03 -2.80454103e-03 -1.82936597e-03 -2.23905896e-03
      -3.05755017e-03 -1.02251619e-02 1.45330606e-02 1.28273424e-02
      -4.96026082e-03 -1.22328652e-02 -6.04299083e-03 -8.32682103e-03
      -1.03822593e-02 -9.23383608e-03 2.11327150e-03 8.98080785e-03
      1.34578981e-02 -5.81165485e-04 -7.69873755e-03 -4.22488945e-03
      -2.99342023e-03 1.22610584e-03 -3.92876012e-04 -1.39114000e-02
      9.96001251e-03 7.75675243e-03 -6.32849662e-03 -1.23054087e-02
      -7.22318096e-03 -1.01225395e-02 -9.04064067e-03 -8.63389857e-03
      -6.35228353e-03 2.08781324e-02 1.76092256e-02 -1.15767994e-03
      -7.54230935e-03 -2.27199541e-03 1.68391981e-03 9.49109846e-04
      -8.72856192e-03 -1.14772888e-02 8.93487968e-03 8.32918286e-03
      -9.67976928e-04 -8.13654042e-04 3.46009649e-04 4.33890289e-03
      4.76655643e-03 -8.24734196e-03 -1.32884858e-02 1.54315820e-02
      6.46484084e-03 -2.63183285e-03 -6.97747525e-03 -2.04040180e-03
      -4.35072975e-03 -2.57323100e-03 -6.41635479e-03 -1.86084900e-02
      1.52263697e-02 1.07039772e-02 7.53055967e-04 1.74959085e-03
      2.49909563e-03 -3.57615674e-04 3.08076269e-05 -1.03975935e-02
      -9.66650434e-03 -7.47589348e-03 -2.82665901e-03 -6.02832413e-04
      4.70648112e-04 6.36753626e-03 1.78488623e-03 2.09480827e-03
      -4.04840102e-03 -9.71998647e-03 -1.27980905e-03 1.05419767e-03
      -9.59923491e-03 -7.47345481e-03 4.55688592e-03 -1.40967546e-03
      -3.28613445e-03 -6.33598398e-03 -1.09626101e-02 7.66443787e-03
      9.43259150e-03 -6.74658688e-04 5.35954547e-04 2.72331876e-03
      2.93051071e-05 9.28703346e-04 -2.51453603e-03 -3.89950024e-03
      3.02599324e-03 5.90102375e-03 2.98880273e-03 -9.82237281e-04
      1.09299703e-03 -1.48877967e-03 -2.68340274e-03 -5.15522086e-04</_></support_vectors>
  <uncompressed_sv_total>44</uncompressed_sv_total>
  <uncompressed_support_vectors>
    <_>
      1.17958680e-01 6.10714070e-02 3.75904068e-02 1.94681529e-02
      7.89184961e-03 6.60765171e-03 1.11032538e-02 8.34186468e-03
      1.96823347e-02 3.38169038e-01 7.43750930e-02 2.95082945e-02
      8.43507331e-03 1.04043838e-02 7.88116641e-03 2.92748958e-03
      5.71499160e-03 1.03241906e-01 2.88147777e-01 2.29351416e-01
      2.68290639e-01 3.32962006e-01 2.28568792e-01 1.51096508e-02
      5.57398703e-03 2.55607278e-03 2.80361567e-02 3.38169038e-01
      3.38169038e-01 2.75525331e-01 2.14059874e-01 1.55510232e-01
      9.77636781e-03 1.64122228e-03 2.08015665e-02 3.12825114e-01
      3.14055860e-01 4.49649319e-02 1.45075982e-02 4.29608347e-03
      1.05169769e-02 6.91501144e-03 3.31209507e-03 6.72545796e-03
      1.02727689e-01 3.37420911e-01 9.69246626e-02 2.19871346e-02
      4.11793776e-03 8.82790610e-03 4.25483286e-03 4.70850151e-03
      9.99055710e-03 1.18221201e-01 3.37420911e-01 2.97994822e-01
      8.09260532e-02 3.13819274e-02 1.63790192e-02 1.08511634e-02
      3.74726243e-02 6.01739250e-02 3.37420911e-01 3.37420911e-01
      3.37420911e-01 9.29651335e-02 6.16237745e-02 4.01012450e-02
      5.15738875e-02 1.22367494e-01 2.10582942e-01 3.37420911e-01
      3.67753178e-01 5.20583726e-02 8.81105848e-03 1.84838579e-03
      2.52744090e-03 2.34344462e-03 1.25075178e-03 6.57091709e-03
      1.36887744e-01 3.67753178e-01 3.05545814e-02 2.51913257e-03
      2.18668647e-04 2.40036030e-03 1.70887751e-03 4.05592192e-03
      2.79932413e-02 2.46340305e-01 3.67753178e-01 1.60453826e-01
      6.40330166e-02 4.36141267e-02 2.04160977e-02 2.26497408e-02
      4.49532680e-02 1.26246437e-01 3.67753178e-01 3.67753178e-01
      1.05254926e-01 7.24920481e-02 4.95890602e-02 5.36432199e-05 0.
      3.51900347e-02 1.73739731e-01 3.67753178e-01 3.19484293e-01
      2.79622544e-02 6.78365584e-03 1.70706981e-03 3.65106133e-03
      2.56023864e-04 8.23605526e-03 3.22634317e-02 2.08142608e-01
      3.19484293e-01 2.92009152e-02 2.13643890e-02 1.54079255e-02
      2.07848549e-02 1.42796093e-03 3.20510752e-02 1.37163803e-01
      3.19484293e-01 3.19484293e-01 1.37982801e-01 1.46400943e-01
      1.11266762e-01 8.00355244e-03 7.43742753e-03 6.38296679e-02
      1.45374313e-01 3.19484293e-01 3.19484293e-01 1.06724389e-01
      1.06794618e-01 1.57253861e-01 1.84529483e-01 9.79005396e-02
      1.03623860e-01 1.87457979e-01 3.19484293e-01 1.23883978e-01
      2.30330285e-02 2.32800320e-02 1.69832483e-02 2.31094137e-02
      3.04013677e-03 4.43341248e-02 2.07045898e-01 2.82081217e-01
      1.76059097e-01 3.28872018e-02 8.54492560e-03 6.65821275e-03
      1.16973929e-02 3.62424320e-03 3.14313024e-02 1.38201579e-01
      2.82081217e-01 2.39629552e-01 1.26306802e-01 1.08883053e-01
      1.89966321e-01 2.82081217e-01 1.23507470e-01 1.25763208e-01
      2.82081217e-01 2.82081217e-01 2.82081217e-01 2.25813940e-01
      7.88162574e-02 7.61955678e-02 1.43262595e-01 4.20175493e-02
      9.17396545e-02 2.82081217e-01 2.82081217e-01 3.18288684e-01
      8.49668086e-02 1.43593913e-02 2.12266040e-03 7.43746525e-03
      1.11405915e-02 1.36316232e-02 3.41770910e-02 1.70306265e-01
      3.31770480e-01 1.11342840e-01 2.95084175e-02 1.94577277e-02
      1.57550219e-02 2.97470428e-02 3.54915857e-02 7.29519427e-02
      2.26973891e-01 3.31770480e-01 2.70601511e-01 4.45366651e-02
      3.76141234e-03 2.24456284e-02 3.16531882e-02 3.46621424e-02
      8.68434310e-02 3.31770480e-01 3.31770480e-01 3.24958235e-01
      1.04565933e-01 7.72481933e-02 3.36132087e-02 8.33412930e-02
      6.58165365e-02 1.17450997e-01 3.31770480e-01 2.39553496e-01
      1.33434922e-01 3.83739993e-02 2.73396559e-02 2.99011152e-02
      4.83640954e-02 4.02871668e-02 9.18554217e-02 1.87130406e-01
      3.02097946e-01 2.67488241e-01 3.38210128e-02 5.07106679e-03
      1.95731577e-02 3.23430821e-02 2.90790517e-02 7.07507059e-02
      2.24893436e-01 3.02097946e-01 2.78726161e-01 1.18306160e-01
      1.10295534e-01 7.00119659e-02 1.08871646e-01 7.20640123e-02
      1.76311269e-01 3.02097946e-01 3.02097946e-01 3.02097946e-01
      5.39824404e-02 1.87042411e-02 4.16721776e-02 6.92199171e-02
      3.90950441e-02 1.57795340e-01 3.02097946e-01 3.49952072e-01
      1.41256273e-01 8.82925559e-03 4.10149514e-04 7.33324187e-03
      1.39768282e-02 1.91231389e-02 3.55293341e-02 2.92256057e-01
      3.49952072e-01 1.04631841e-01 2.89596785e-02 9.02203610e-04
      1.31208347e-02 1.91093981e-02 9.91680939e-03 2.99104787e-02
      2.74372220e-01 3.49952072e-01 2.84841835e-01 1.10922270e-02
      6.94499526e-04 9.23494622e-03 2.08842978e-02 2.35393085e-02
      4.90701683e-02 3.49952072e-01 3.49952072e-01 1.80150256e-01
      3.10550686e-02 7.32672168e-04 1.60700232e-02 2.29548607e-02
      9.43945162e-03 2.39726063e-02 2.61995524e-01 3.37794781e-01
      2.21063644e-01 8.98370370e-02 2.09657699e-02 5.75288311e-02
      8.87785405e-02 5.21823131e-02 1.39719844e-01 3.37794781e-01
      1.91991523e-01 1.19981214e-01 6.59483075e-02 5.41740060e-02
      1.42986998e-01 1.40566170e-01 7.78569579e-02 1.49486244e-01
      1.97401285e-01 3.37794781e-01 3.05098951e-01 1.05910361e-01
      2.89414413e-02 4.99865562e-02 7.09340572e-02 2.41591930e-02
      6.07794002e-02 3.04236740e-01 2.93737948e-01 2.03960836e-01
      1.10598303e-01 8.02754015e-02 1.23744674e-01 9.54559892e-02
      3.25262733e-02 5.72919287e-02 1.11996494e-01 1.98207751e-01
      1.22301206e-01 1.58114389e-01 1.69343486e-01 2.54265279e-01
      2.54265279e-01 1.21812969e-01 2.41249442e-01 2.31643230e-01
      1.46681949e-01 4.05892432e-02 9.01413634e-02 6.62537143e-02
      1.16432451e-01 1.07247539e-01 4.75301519e-02 8.94709304e-02
      1.85134739e-01 2.21473739e-01 2.54265279e-01 2.54265279e-01
      2.54265279e-01 2.54265279e-01 2.00081810e-01 5.21849170e-02
      1.16468392e-01 1.75635859e-01 1.12191960e-01 7.55747259e-02
      2.13959843e-01 1.61848277e-01 1.27109766e-01 7.23276511e-02
      3.91121097e-02 6.47467971e-02 1.26716077e-01 2.78961301e-01
      1.29970312e-01 2.30225593e-01 4.54746000e-02 8.50081593e-02
      6.18607365e-02 2.02902466e-01 1.47008315e-01 2.78961301e-01
      2.78961301e-01 8.60314816e-02 1.44081548e-01 2.17496883e-03
      1.10027023e-01 5.37282648e-03 1.77646011e-01 1.62421718e-01
      2.78961301e-01 1.83182642e-01 7.67056942e-02 2.26381242e-01
      1.10600851e-01 1.36425853e-01 3.63073088e-02 2.32665390e-01
      1.64095223e-01 2.07773238e-01 2.02625856e-01 4.79713418e-02
      1.13006704e-01 7.85840023e-03 1.55214906e-01 6.24641078e-03
      2.31556311e-01 1.31093264e-01 2.09024444e-01 2.28734970e-01
      2.43662596e-02 4.31322120e-02 9.45664570e-03 2.34076694e-01
      2.11237054e-02 1.64842129e-01 2.51576900e-01 2.67782569e-01
      1.06408685e-01 3.92509885e-02 4.85950783e-02 2.55346131e-02
      2.70445406e-01 3.53009216e-02 1.98018685e-01 1.98139861e-01
      1.30317867e-01 1.72059178e-01 7.77195096e-02 1.15287751e-01
      3.41678895e-02 2.70445406e-01 3.18723880e-02 1.85659125e-01
      1.65584013e-01 1.76358491e-01 2.20284238e-01 1.82500571e-01
      1.59808725e-01 6.05745465e-02 2.70445406e-01 2.71837078e-02
      2.05581740e-01 2.10271582e-01 2.25078762e-01 1.10999994e-01
      6.40481785e-02 6.37284145e-02 4.54233214e-02 2.59011358e-01
      4.26078364e-02 1.09710485e-01 2.91953057e-01 1.70943424e-01
      3.03457081e-01 6.72100335e-02 5.55694699e-02 3.67641523e-02
      1.28131241e-01 3.18238810e-02 2.39898697e-01 3.03457081e-01
      3.03457081e-01 1.52567193e-01 1.32549807e-01 1.21398062e-01
      7.98564255e-02 1.95985243e-01 6.09186769e-04 6.19214661e-02
      1.22909889e-01 1.66739419e-01 3.03324789e-01 9.06226411e-02
      1.02536291e-01 5.58605306e-02 1.44552067e-01 5.33234049e-03
      1.07130378e-01 1.82680428e-01 3.03457081e-01 1.62016690e-01
      5.23899831e-02 3.29495817e-02 5.60331903e-03 4.72583286e-02
      1.01402253e-02 2.77234286e-01 2.77234286e-01 2.77234286e-01
      1.38498694e-01 4.15081121e-02 1.77794918e-02 2.11734069e-03
      1.13837264e-01 6.87659997e-03 2.77234286e-01 2.77234286e-01
      2.21672937e-01 1.52915195e-01 3.15675847e-02 5.71659543e-02
      3.70417396e-03 1.75334588e-01 2.71084420e-02 2.13197276e-01
      2.75343657e-01 2.02214032e-01 1.32492334e-01 1.96372755e-02
      1.84055660e-02 0. 1.91385180e-01 4.45030481e-02 2.77234286e-01
      2.77234286e-01 2.55374700e-01 1.45195782e-01 5.85200405e-03 0. 0.
      1.50728375e-01 2.61176974e-02 2.52131939e-01 2.09059894e-01
      1.94025025e-01 1.78512171e-01 5.34392614e-03 2.18153815e-03 0.
      1.13269925e-01 6.84567466e-02 2.76658386e-01 2.22849533e-01
      2.76658386e-01 2.10799769e-01 2.28504539e-02 2.12849816e-03 0.
      9.59956646e-02 3.84480432e-02 2.76658386e-01 2.76658386e-01
      2.76658386e-01 2.76658386e-01 4.96660993e-02 9.45333298e-03 0.
      7.48011097e-02 2.29656175e-02 1.79062769e-01 2.76658386e-01
      2.76658386e-01 5.77143207e-02 6.04609363e-02 9.73479822e-02
      2.18157873e-01 3.62038404e-01 5.73936403e-02 7.35639886e-04
      4.63735312e-04 6.62105205e-03 3.24405074e-01 1.98418364e-01
      1.85433388e-01 2.28711367e-01 3.62038404e-01 9.09084231e-02
      7.56967347e-04 1.00638764e-02 7.71788731e-02 2.70427437e-03
      9.10481031e-04 3.59764509e-03 8.52884725e-02 3.62038404e-01
      1.97898537e-01 3.75409960e-03 2.17530387e-03 3.45263234e-03
      1.30806975e-02 3.07899565e-02 4.86028194e-02 2.29145348e-01
      3.62038404e-01 2.37749159e-01 6.11302955e-03 2.62969825e-03
      5.25216665e-03 2.95260876e-01 2.95260876e-01 1.75088778e-01
      1.39650479e-01 2.37701550e-01 6.47288859e-02 3.42479646e-02
      6.72296807e-02 2.04647705e-01 2.95260876e-01 2.81490177e-01
      8.84394646e-02 7.19478503e-02 5.59075736e-02 6.14167899e-02
      1.64210856e-01 2.95260876e-01 2.95260876e-01 5.88517115e-02
      7.81924576e-02 7.76013583e-02 2.23842293e-01 2.95260876e-01
      1.50578320e-01 9.80509445e-03 2.22695563e-02 2.95095127e-02
      9.50858667e-02 3.69058959e-02 2.04103515e-02 4.33496945e-02
      1.03958286e-01 2.91971415e-02 4.56611514e-02 1.87919736e-01
      1.94563985e-01 3.41408134e-01 9.56569538e-02 5.80603965e-02
      4.48383391e-02 2.13368163e-02 3.07249185e-02 8.10355023e-02
      2.86119878e-01 3.41408134e-01 3.41408134e-01 1.76228970e-01
      1.06852315e-01 6.97094202e-02 5.30855323e-04 0. 2.60144826e-02
      1.31348565e-01 3.41408134e-01 2.27624923e-01 1.10332342e-02
      2.80711730e-03 2.47715111e-03 1.92238030e-03 6.23213733e-03
      2.27750856e-02 1.48457780e-01 3.22951615e-01 3.41408134e-01
      9.72460285e-02 2.31558755e-02 1.03829158e-02 1.44262915e-03
      2.80959881e-04 5.38545486e-04 1.92728695e-02 2.34187514e-01
      3.48242223e-01 2.25926518e-01 2.22186387e-01 1.68396324e-01
      3.85588072e-02 2.28094757e-02 5.66076748e-02 1.00999169e-01
      2.78231412e-01 2.83937037e-01 9.83548239e-02 1.11506648e-01
      2.08767414e-01 3.48242223e-01 2.64856994e-01 8.20053294e-02
      7.64365494e-02 1.49902403e-01 2.22839326e-01 1.04226202e-01
      5.46010919e-02 3.99907194e-02 7.08333179e-02 2.43260469e-02
      7.89145194e-03 5.37584117e-03 5.02431169e-02 2.36647427e-02
      2.55555585e-02 2.76054125e-02 1.48558378e-01 3.48242223e-01
      2.48605713e-01 1.64946523e-02 1.07586868e-02 6.99542044e-03
      6.74098283e-02 6.00654595e-02 6.03418574e-02 1.57335907e-01
      3.66896242e-01 2.40240097e-01 4.52798158e-02 6.44102320e-02
      8.07542875e-02 3.17623764e-01 1.19332336e-01 6.19084910e-02
      7.58762732e-02 3.66896242e-01 1.07439183e-01 3.24819311e-02
      8.15642551e-02 2.46307820e-01 2.69799563e-03 2.45720614e-03
      7.08208280e-03 1.31226182e-01 3.66896242e-01 2.88431525e-01
      3.06608714e-03 2.00060033e-03 3.63484304e-03 4.15571481e-02
      1.29360547e-02 1.30032292e-02 7.05896467e-02 3.66896242e-01
      1.95507124e-01 7.13132834e-03 3.86830000e-03 2.06875671e-02
      3.91906977e-01 2.78066069e-01 5.41815832e-02 2.58989949e-02
      1.31188095e-01 4.15690839e-02 3.77812795e-02 8.79687965e-02
      3.91906977e-01 3.91906977e-01 3.11605185e-01 1.04745537e-01
      6.97402209e-02 3.20014879e-02 5.89249097e-02 4.22762148e-02
      6.88677505e-02 3.91906977e-01 1.54734030e-01 3.91358621e-02
      2.56034732e-02 3.88330817e-02 2.99554765e-01 6.88494891e-02
      2.22881101e-02 2.39803493e-02 6.62743226e-02 1.18214384e-01
      2.78014168e-02 2.11546030e-02 1.82873104e-02 1.43053383e-02
      9.21228435e-03 1.53674288e-02 3.05750296e-02 6.45323619e-02
      3.72187853e-01 3.72187853e-01 2.05950275e-01 1.61765665e-01
      8.48963633e-02 1.02481350e-01 6.53574243e-02 1.77875429e-01
      3.72187853e-01 3.72187853e-01 2.91402668e-01 6.47461563e-02
      3.84906344e-02 4.50229198e-02 6.76484928e-02 4.09047306e-02
      2.06208795e-01 3.72187853e-01 1.05501480e-01 4.18052003e-02
      4.06666175e-02 3.70794386e-02 2.85106711e-02 1.80631969e-02
      1.86505634e-02 3.07063255e-02 6.01107143e-02 6.71402812e-02
      4.10412923e-02 5.02173901e-02 3.29540372e-02 2.67049074e-02
      2.57000905e-02 2.17350032e-02 3.51532586e-02 7.23762810e-02
      4.21732724e-01 4.21732724e-01 1.91224273e-02 1.35626011e-02
      2.15275567e-02 3.43898237e-02 3.49019393e-02 1.08639665e-01
      4.21732724e-01 4.21732724e-01 3.22073907e-01 4.18466069e-02
      1.82553716e-02 3.88234332e-02 3.29725593e-02 2.28850897e-02
      3.92178558e-02 3.20557207e-01 8.70387107e-02 5.16420752e-02
      3.11946943e-02 1.80853717e-02 2.35030036e-02 2.98723727e-02
      4.07727472e-02 5.65108359e-02 8.61763209e-02 1.07342467e-01
      7.85298273e-02 2.10430045e-02 2.22616494e-02 2.76308227e-02
      3.53227034e-02 5.31894676e-02 4.80486080e-02 6.97215050e-02
      3.70517820e-01 3.70517820e-01 1.31224275e-01 5.72296008e-02
      6.08970672e-02 5.76145090e-02 2.84905713e-02 4.04030681e-02
      3.20224881e-01 3.70517820e-01 3.70517820e-01 2.16895983e-01
      1.08719274e-01 7.11098835e-02 5.20792976e-02 4.43274193e-02
      7.30920061e-02 1.87572286e-01 1.77954033e-01 1.13453656e-01
      4.47042659e-02 3.95234190e-02 4.33042571e-02 6.12377897e-02
      7.71075562e-02 6.48635998e-02 1.11995846e-01 2.41224378e-01
      1.04974270e-01 4.07384671e-02 1.66559536e-02 5.17888926e-02
      5.46120293e-02 1.12785652e-01 1.16057023e-01 1.61581263e-01
      2.36013979e-01 2.46079117e-01 2.46079117e-01 1.64616078e-01
      1.34841338e-01 4.02952433e-02 9.51396525e-02 1.51794627e-01
      2.08372638e-01 1.12147816e-01 9.57066491e-02 1.63046122e-01
      1.16003484e-01 1.09899364e-01 1.72617212e-02 1.43617138e-01
      2.26108044e-01 1.34862646e-01 2.46079117e-01 1.02983914e-01
      5.44717088e-02 3.89642529e-02 1.60604462e-01 8.49947482e-02
      2.46079117e-01 2.46079117e-01 2.46079117e-01 1.57841727e-01
      6.69116378e-02 4.24986072e-02 5.70380762e-02 1.41525447e-01
      1.02445826e-01 2.46079117e-01 2.46079117e-01 2.40427941e-01
      6.53644875e-02 6.32196516e-02 9.08304751e-02 4.12908718e-02
      8.75809267e-02 2.83378027e-02 1.69648901e-01 2.18550891e-01
      8.75566006e-02 1.21093571e-01 7.90616497e-02 6.39897957e-02
      8.27594660e-03 7.87582546e-02 6.90180361e-02 1.35306910e-01
      1.28456622e-01 1.40778631e-01 2.81255543e-01 1.19656436e-01
      9.66480225e-02 5.43915033e-02 1.11500919e-01 1.44544184e-01
      2.87274480e-01 2.87274480e-01 2.87274480e-01 2.87274480e-01
      1.75925493e-01 1.18796460e-01 4.63376082e-02 1.36666626e-01
      2.01486304e-01 2.36463457e-01 2.85428196e-01 2.87274480e-01
      1.22056678e-01 6.55455813e-02 5.86245917e-02 4.25259247e-02
      7.19923228e-02 7.98636749e-02 1.13374941e-01 9.50099826e-02
      9.93950441e-02 1.66259006e-01 7.78541639e-02 7.64283612e-02
      5.39046787e-02 1.06850743e-01 8.10871944e-02 1.18097074e-01
      9.66284275e-02 1.46528214e-01 3.29791099e-01 1.12387434e-01
      1.02026150e-01 1.10708125e-01 7.15012625e-02 1.68702707e-01
      2.02152923e-01 1.93264708e-01 3.29791099e-01 3.29791099e-01
      1.49904102e-01 2.20729679e-01 1.46960646e-01 1.10681809e-01
      1.48095116e-01 2.25288555e-01 2.52752990e-01 3.29791099e-01
      9.77291167e-02 6.29129037e-02 4.27708924e-02 1.30864801e-02
      5.56184128e-02 3.16579118e-02 4.44366522e-02 5.40727861e-02
      1.04105726e-01 1.69619054e-01 8.13611746e-02 4.34108675e-02
      2.07839347e-02 5.34528978e-02 2.04299912e-02 3.31609175e-02
      9.12448689e-02 1.55030206e-01 3.03295344e-01 2.54721612e-01
      2.25923479e-01 1.09812550e-01 1.38712779e-01 8.67950320e-02
      1.32503211e-01 1.81171060e-01 3.03295344e-01 3.03295344e-01
      2.93407232e-01 1.43552184e-01 1.58495277e-01 1.85718641e-01
      1.73621923e-01 1.62780970e-01 3.01905543e-01 3.03295344e-01
      1.53390855e-01 5.62809445e-02 6.32105619e-02 2.82370206e-02
      7.70876780e-02 2.38495544e-02 6.59820586e-02 8.57615694e-02
      1.33557945e-01 1.34135246e-01 7.19801858e-02 5.77667467e-02
      1.74939707e-02 9.23265293e-02 3.51010673e-02 1.07242137e-01
      1.19795829e-01 1.55410334e-01 3.55184525e-01 1.44160882e-01
      1.29074916e-01 1.47272229e-01 1.52658284e-01 1.14291199e-01
      1.26217321e-01 2.48168021e-01 3.55184525e-01 3.55184525e-01
      2.15311542e-01 1.39158651e-01 8.06797892e-02 1.25646323e-01
      7.49965385e-02 1.22194231e-01 2.36875042e-01 3.55184525e-01
      1.39652222e-01 6.40057102e-02 3.91354039e-02 1.16243055e-02
      5.51048517e-02 2.89592203e-02 9.74886864e-02 1.31977215e-01
      1.95708841e-01 2.43739396e-01 7.38673955e-02 3.43865454e-02
      1.06837191e-02 1.79445390e-02 2.99288183e-02 7.64669776e-02
      1.88208386e-01 3.20726454e-01 3.20726454e-01 2.12078065e-01
      1.12029597e-01 6.02444522e-02 1.05429895e-01 5.58382683e-02
      1.49239391e-01 1.88898325e-01 3.20726454e-01 3.20726454e-01
      1.93962082e-01 1.22692294e-01 5.87024316e-02 9.25608352e-02
      8.23674276e-02 1.67809248e-01 2.15581998e-01 3.20726454e-01
      2.78272154e-03 4.65289166e-04 8.57264502e-04 2.56598704e-02
      3.49356771e-01 3.38945955e-01 3.99077823e-03 1.08497194e-03
      4.18913830e-03 2.69852299e-03 0. 2.30769874e-04 1.46372586e-01
      3.49356771e-01 3.49356771e-01 8.24858248e-03 1.48038007e-03
      7.38128554e-03 2.92021711e-03 8.54849175e-04 2.47223908e-03
      1.23863081e-02 3.49356771e-01 3.49356771e-01 7.00214738e-03
      1.15701056e-03 3.01135797e-03 1.93325931e-03 0. 3.30689159e-04
      6.78856671e-02 3.49356771e-01 3.49356771e-01 1.24049298e-02
      4.71418520e-04 4.53014625e-03 3.14865378e-03 3.28297331e-03
      4.96264175e-03 3.50590169e-01 4.57445830e-01 3.13063115e-01
      2.38392260e-02 1.19517418e-02 1.03916600e-02 5.58764907e-03
      5.44255739e-03 8.87677353e-03 6.15189224e-02 1.75470412e-01
      5.00276461e-02 2.10193843e-02 6.57264218e-02 4.97555584e-02
      2.52772379e-03 1.15106988e-03 3.94092500e-03 1.68769002e-01
      4.57445830e-01 4.57445830e-01 6.22018948e-02 6.28401153e-03
      4.47277585e-03 1.28028225e-02 7.37656280e-03 9.48209036e-03
      3.96640338e-02 2.14311391e-01 1.41496584e-01 2.95869987e-02
      1.13126589e-02 1.22366622e-02 3.28816444e-01 5.97126335e-02
      3.97179574e-02 1.61475707e-02 5.70622720e-02 4.71805930e-02
      8.38910714e-02 3.31977993e-01 3.31977993e-01 3.31977993e-01
      3.31977993e-01 7.74822235e-02 2.07729619e-02 4.00081575e-02
      1.88694391e-02 5.80922328e-02 1.56019315e-01 3.31977993e-01
      1.64984047e-01 7.28968307e-02 4.04205360e-02 3.13541181e-02
      1.06767900e-01 3.32267322e-02 7.51773715e-02 1.17986508e-01
      1.74564689e-01 2.29645982e-01 7.52886534e-02 5.19186296e-02
      1.76024456e-02 5.91689348e-02 3.66413742e-02 1.35737374e-01
      1.67540818e-01 2.70250052e-01 4.77871373e-02 3.63147035e-02
      1.45424828e-02 3.85322571e-02 1.17492966e-01 2.21501533e-02
      5.52823674e-03 4.86191502e-03 9.95729957e-03 9.79000330e-03
      1.10959634e-02 1.25485240e-02 3.12984258e-01 5.66951454e-01
      2.18182012e-01 5.73838921e-03 3.84005648e-03 2.44048098e-03
      1.28860865e-02 5.26240235e-03 8.30408279e-03 4.84570712e-02
      1.84054852e-01 1.84321590e-02 1.01897186e-02 8.39431398e-03
      1.42596774e-02 2.30597379e-03 2.58575822e-03 7.30099343e-03
      3.49551588e-01 5.66951454e-01 1.61945999e-01 6.28591422e-03
      2.05030153e-03 2.15647020e-03 1.21671497e-03 2.30372767e-04
      1.32847251e-03 1.68427080e-01 3.33990961e-01 2.39392534e-01
      6.90705795e-03 2.70251837e-03 4.06779349e-03 3.15265730e-02
      3.43148177e-03 4.83132666e-03 8.32291543e-02 3.33990961e-01
      2.41568089e-01 2.21224204e-02 1.68075729e-02 4.53108400e-02
      2.12214906e-02 1.12459937e-03 1.85670517e-02 1.36392519e-01
      3.33990961e-01 2.59778529e-01 2.77900416e-02 1.46553563e-02
      3.86404544e-02 2.93547958e-01 1.76263545e-02 4.29986268e-02
      5.75769842e-02 3.33990961e-01 3.08160037e-01 6.64549544e-02
      6.03088215e-02 3.33990961e-01 1.55440122e-01 1.50994882e-02
      1.15226218e-02 1.82908997e-02 1.57566503e-01 7.13259652e-02
      2.09539253e-02 2.36309115e-02 1.22508496e-01 2.58174300e-01
      1.67017747e-02 8.76162108e-03 6.76656328e-03 4.45831427e-03
      3.24812368e-03 5.36195468e-03 1.16441017e-02 1.77384555e-01
      4.44605589e-01 7.62224719e-02 2.48378515e-02 2.88443565e-02
      8.05549920e-02 1.00985982e-01 4.88881059e-02 5.98493367e-02
      4.44605589e-01 4.44605589e-01 7.01846480e-02 7.64827011e-03
      2.36431253e-03 3.92206851e-03 5.20161865e-03 1.26372892e-02
      1.61064025e-02 4.44605589e-01 2.12388292e-01 1.25819771e-02
      8.78992304e-03 6.60570152e-03 4.59089363e-03 2.86286324e-03
      2.93591316e-03 1.30031817e-02 1.86020255e-01 2.67558396e-01
      3.69178541e-02 1.08335204e-02 5.51404571e-03 6.65307278e-03
      7.44599523e-03 4.96246526e-03 1.77050885e-02 1.77043408e-01
      3.90845656e-01 7.98348561e-02 1.35372551e-02 9.82870441e-03
      7.96575379e-03 3.22200283e-02 1.06003340e-02 1.25369489e-01
      3.90845656e-01 3.90845656e-01 3.68399918e-01 2.45926734e-02
      2.72579696e-02 1.78137869e-02 4.42213416e-02 1.16438325e-02
      1.92133993e-01 3.90845656e-01 2.83893973e-01 3.43047902e-02
      4.93400171e-03 1.81598309e-03 3.28297424e-03 5.15740411e-03
      8.88755824e-03 1.08237825e-02 1.48414195e-01 3.31501901e-01
      3.36695872e-02 2.70029437e-03 1.00612023e-03 1.43006269e-03
      4.57139872e-03 1.01659177e-02 1.56775843e-02 2.44929001e-01
      3.93968225e-01 2.43861362e-01 1.93592682e-02 1.21932793e-02
      1.88210662e-02 1.85064822e-02 8.69802665e-03 4.78313603e-02
      3.93968225e-01 3.93968225e-01 1.77039862e-01 1.44591760e-02
      6.48611085e-03 1.93579141e-02 1.71333700e-02 1.74740311e-02
      6.43596351e-02 3.93968225e-01 3.01847011e-01 2.24554446e-02
      1.48288184e-03 7.73782085e-04 1.41289446e-03 3.57492315e-03
      4.65298304e-03 1.54664153e-02 2.33252034e-01 3.45495850e-01
      4.96054664e-02 9.29067261e-04 2.73607729e-04 3.45605239e-03
      2.09637010e-03 6.52698195e-03 2.93880813e-02 2.78656304e-01
      3.72768372e-01 1.33773297e-01 1.19750714e-02 3.75167280e-03
      6.30179234e-03 5.32356929e-03 1.95299964e-02 8.09579790e-02
      3.72768372e-01 3.72768372e-01 2.26304591e-01 1.73126590e-02
      8.00531637e-03 6.10148208e-03 9.28522926e-03 1.93495024e-02
      1.28907204e-01 3.72768372e-01 2.39304528e-01 3.65716666e-02
      1.33491924e-03 7.64512282e-04 6.50198339e-03 3.49343568e-03
      1.15860039e-02 5.96414283e-02 2.98044711e-01 2.54256457e-01
      7.04287663e-02 1.74900144e-02 1.81480008e-03 6.34708907e-03
      5.40740602e-03 1.58694275e-02 6.28092960e-02 2.74811387e-01
      3.50222021e-01 1.65138572e-01 1.89111363e-02 2.04430744e-02
      1.97582226e-02 1.26391444e-02 2.02666186e-02 2.22182915e-01
      3.50222021e-01 3.50222021e-01 2.33789489e-01 8.43773335e-02
      2.70571262e-02 5.17293513e-02 2.44298354e-02 4.43584584e-02
      2.42632627e-01 3.50222021e-01 2.58196980e-01 7.57593736e-02
      2.06638034e-02 1.57120649e-03 3.33227939e-03 5.92082459e-03
      1.03488127e-02 3.61037850e-02 2.37095878e-01 3.39367390e-01
      3.66495438e-02 2.37354152e-02 3.12901754e-03 3.90353543e-03
      6.48744637e-03 5.24232863e-03 3.23112421e-02 2.79455900e-01
      3.39367390e-01 2.68387616e-01 9.97690260e-02 3.14503424e-02
      5.51128350e-02 4.00104113e-02 4.98289168e-02 1.80628344e-01
      3.39367390e-01 3.39367390e-01 1.33680865e-01 1.38429061e-01
      4.84254211e-02 3.03909816e-02 3.90501022e-02 4.10167053e-02
      2.07074240e-01 3.39367390e-01 3.51118088e-01 2.11971831e-02
      9.68431495e-03 3.18967761e-03 1.83834997e-03 2.80562579e-03
      3.97598324e-03 2.00980846e-02 2.30428219e-01 3.51118088e-01
      3.21440734e-02 1.10406252e-02 3.70461517e-03 2.31131190e-03
      2.31859996e-03 7.29565509e-03 4.29545715e-02 3.51118088e-01
      3.51118088e-01 6.23293407e-02 5.13579361e-02 1.54684763e-02
      7.94228911e-03 1.76982880e-02 2.30437461e-02 1.22788914e-01
      3.51118088e-01 3.51118088e-01 9.52022225e-02 5.99268042e-02
      7.57505139e-03 2.45082360e-02 4.02561910e-02 8.67197439e-02
      1.76480129e-01 3.51118088e-01 2.71890849e-01 7.26111606e-02
      1.96326189e-02 7.30127608e-03 4.49091755e-03 2.80989730e-03
      8.12563766e-03 7.62349591e-02 2.71890849e-01 2.60141969e-01
      1.29249498e-01 2.77917311e-02 8.69048946e-03 6.38609054e-03
      1.81590170e-02 5.08451536e-02 1.15849502e-01 2.71890849e-01
      2.71890849e-01 1.58707902e-01 6.85524121e-02 1.90229323e-02
      4.31165807e-02 4.70896214e-02 1.50263354e-01 2.71844447e-01
      2.71890849e-01 2.71890849e-01 2.71890849e-01 1.49857521e-01
      3.66219170e-02 5.55104278e-02 9.68670920e-02 2.27316126e-01
      2.71890849e-01 2.71890849e-01 2.63516456e-01 1.39890701e-01
      2.30516419e-02 4.41477587e-03 5.39908977e-03 1.49687352e-02
      5.00864163e-02 7.43324012e-02 2.58579224e-01 2.79061675e-01
      1.03096880e-01 1.43172555e-02 1.12678586e-02 8.41634255e-03
      1.64203085e-02 2.65261196e-02 7.02040642e-02 2.79061675e-01
      2.79061675e-01 2.79061675e-01 1.28072664e-01 3.75234485e-02
      3.72871757e-02 8.53770226e-02 1.61622867e-01 2.08674163e-01
      2.79061675e-01 2.79061675e-01 2.79061675e-01 6.74329177e-02
      8.80945250e-02 6.65040910e-02 1.42267033e-01 1.24979787e-01
      2.09320694e-01 2.79061675e-01 2.66279250e-01 4.05806676e-02
      1.57064069e-02 3.53086963e-02 3.79579142e-02 5.75339347e-02
      4.58786450e-02 7.78417885e-02 2.66279250e-01 8.00183341e-02
      2.85633821e-02 2.29515266e-02 2.70298347e-02 6.80893958e-02
      4.93407398e-02 5.56289703e-02 4.92480919e-02 1.39592648e-01
      2.66279250e-01 8.85661244e-02 1.03875786e-01 2.57977724e-01
      2.63077527e-01 2.66279250e-01 2.66279250e-01 2.66279250e-01
      2.66279250e-01 7.95591772e-02 6.10731617e-02 1.03929944e-01
      1.79367781e-01 2.66279250e-01 2.51055121e-01 2.25462884e-01
      1.33400589e-01 1.85487285e-01 1.51303143e-03 4.04094666e-04
      3.20657180e-03 2.92421803e-02 4.48667347e-01 1.39456257e-01
      9.89157055e-03 4.77165589e-03 1.52911246e-03 1.69729101e-05
      4.95468475e-06 5.88550698e-04 5.60065135e-02 4.48667347e-01
      3.15798461e-01 4.71866550e-03 5.91515505e-04 4.47059283e-05
      2.02391506e-03 1.37906158e-04 4.61945822e-03 5.23366965e-02
      4.48667347e-01 9.22435448e-02 1.05281938e-02 7.31757469e-03
      2.52482225e-03 1.02465339e-04 2.14702995e-05 1.08306087e-03
      8.49175751e-02 4.48667347e-01 2.19641060e-01 9.10056289e-03
      4.39269992e-04 1.38122065e-04 1.58456957e-03 2.00426369e-03
      1.77780958e-03 5.60065694e-02 4.83664840e-01 4.38749135e-01
      1.72709730e-02 3.38296453e-03 1.50432938e-03 1.70186702e-02
      1.10219931e-02 4.66442062e-03 1.52337393e-02 2.58365661e-01
      9.79500264e-02 9.77220573e-03 9.67958942e-03 1.31642167e-02
      9.94080212e-04 2.51978799e-03 2.39117676e-03 9.63554233e-02
      4.83664840e-01 2.84555703e-01 9.14764684e-03 2.89782207e-03
      2.14789086e-03 1.54002234e-02 1.05987564e-02 6.14161231e-03
      3.55874337e-02 3.96468043e-01 6.37394339e-02 9.41102207e-03
      1.55627485e-02 1.92884337e-02 2.84827769e-01 1.60066694e-01
      3.86104211e-02 3.82984541e-02 1.38691410e-01 3.65096219e-02
      5.16250841e-02 1.33605286e-01 2.84827769e-01 2.84827769e-01
      1.50694951e-01 1.08289592e-01 5.48473001e-02 7.76984170e-02
      2.32124925e-02 9.36384052e-02 1.12741888e-01 2.84827769e-01
      2.84827769e-01 1.56452969e-01 5.43641858e-02 4.95691486e-02
      1.59192935e-01 5.18685505e-02 1.06136478e-01 1.94948122e-01
      2.84827769e-01 2.84827769e-01 2.02320158e-01 1.76562890e-01
      5.21167628e-02 1.21050857e-01 1.83786917e-02 5.10540269e-02
      1.15600929e-01 2.84827769e-01 1.52788609e-02 8.71040951e-03
      9.17810574e-03 3.43440138e-02 1.75285399e-01 2.93788109e-02
      6.08047564e-03 4.40734392e-03 1.40371136e-02 3.68788629e-03
      5.18219080e-03 5.82874753e-03 1.84282988e-01 5.86970925e-01
      1.75722286e-01 5.00703882e-03 1.29277317e-03 2.55886489e-03
      1.22522516e-02 1.24126980e-02 1.14548886e-02 1.99782532e-02
      1.90365136e-01 5.47915846e-02 2.51008454e-03 1.08515490e-02
      1.28504680e-02 7.67378137e-03 5.76271303e-03 3.87565442e-03
      6.61278144e-02 5.86970925e-01 4.02229697e-01 2.20448291e-03
      5.91537496e-03 5.92876785e-03 2.18626671e-02 6.33550528e-03
      3.02121770e-02 1.01550676e-01 3.54267985e-01 1.80801481e-01
      2.26913430e-02 1.03944968e-02 2.96488181e-02 2.63248622e-01
      2.37450060e-02 7.08280876e-02 8.64462107e-02 3.15464050e-01
      2.17418253e-01 8.08172598e-02 4.29389440e-02 2.79646039e-01
      2.74432059e-02 2.99044941e-02 3.59489769e-02 8.51220265e-02
      3.54267985e-01 2.02125967e-01 1.92084908e-02 6.92450861e-03
      1.60987452e-02 3.41392189e-01 6.87875077e-02 8.44241381e-02
      1.53618440e-01 3.54267985e-01 1.14334114e-01 8.13752785e-02
      3.43994610e-02 1.83546439e-01 3.37251365e-01 5.18758520e-02
      3.15667838e-02 3.99326794e-02 5.79350330e-02 8.52598920e-02
      7.91933984e-02 4.70144041e-02 3.37251365e-01 3.37251365e-01
      8.05259049e-02 2.73826215e-02 5.52341295e-03 1.03802253e-02
      1.77480988e-02 5.18286116e-02 4.56471033e-02 3.37251365e-01
      3.37251365e-01 4.35424298e-02 6.39586821e-02 5.76310866e-02
      7.32818097e-02 6.68071732e-02 8.60404670e-02 5.49404733e-02
      3.37251365e-01 3.37251365e-01 7.40476549e-02 5.25042713e-02
      1.40559552e-02 6.66189333e-03 1.75022092e-02 5.51724359e-02
      9.20896679e-02 3.37251365e-01 3.30099106e-01 8.06930587e-02
      3.01096756e-02 2.12334041e-02 2.32555363e-02 4.22112904e-02
      3.16650607e-02 8.52437764e-02 3.30099106e-01 3.30099106e-01
      2.31734917e-01 3.23505849e-02 5.74587397e-02 6.36997446e-02
      6.89046681e-02 3.23412605e-02 1.08194239e-01 3.25337619e-01
      3.30099106e-01 7.54965618e-02 2.27206536e-02 1.33271068e-02
      1.71496775e-02 1.74553990e-02 2.70514619e-02 6.20852672e-02
      3.30099106e-01 3.30099106e-01 9.36230868e-02 1.26267578e-02
      3.38797346e-02 5.75588085e-02 4.63845283e-02 3.98075096e-02
      3.64895873e-02 3.30099106e-01 3.44317913e-01 1.67543933e-01
      3.10543645e-02 4.68256995e-02 6.96801469e-02 4.56458703e-02
      2.20294967e-02 3.93447801e-02 2.71209300e-01 3.44317913e-01
      1.19786859e-01 2.21473910e-02 2.95971129e-02 5.64904101e-02
      4.30959687e-02 3.82920913e-02 5.62666357e-02 3.44317913e-01
      3.44317913e-01 7.66028687e-02 1.53709818e-02 5.17448820e-02
      6.85477257e-02 4.56984267e-02 2.63416879e-02 2.85153966e-02
      3.44317913e-01 3.44317913e-01 5.21209762e-02 1.63825210e-02
      3.87214459e-02 5.01595400e-02 3.83558795e-02 3.05002034e-02
      3.23656946e-02 3.44317913e-01 3.45218956e-01 9.39948559e-02
      3.05936653e-02 1.49322627e-02 1.68902501e-02 1.62010994e-02
      3.61953191e-02 6.21256866e-02 3.15527558e-01 3.45218956e-01
      1.23033360e-01 4.69705313e-02 2.50910148e-02 1.68312192e-02
      4.56202216e-02 5.27970269e-02 7.75427520e-02 3.45218956e-01
      3.45218956e-01 3.09492983e-02 2.78948508e-02 1.35611268e-02
      1.16249081e-02 1.38081284e-02 3.49773616e-02 3.93209420e-02
      3.45218956e-01 3.45218956e-01 4.85081822e-02 4.28912267e-02
      1.87617075e-02 1.36408256e-02 4.13836204e-02 6.06991202e-02
      5.26109710e-02 3.45218956e-01 2.48937264e-01 8.49375874e-02
      2.73104813e-02 3.75343449e-02 4.47589457e-02 5.39551079e-02
      3.95848639e-02 1.05185069e-01 3.20290923e-01 3.06544721e-01
      1.28435612e-01 4.65015061e-02 5.34236878e-02 8.64113644e-02
      5.27514145e-02 5.25553003e-02 1.46222949e-01 3.43341500e-01
      3.43341500e-01 9.13384482e-02 1.52009698e-02 1.79575644e-02
      3.28726321e-02 4.93652709e-02 3.76579575e-02 8.33100528e-02
      3.43341500e-01 3.43341500e-01 1.41874850e-01 8.31112452e-03
      2.76817437e-02 4.41610329e-02 3.50806676e-02 1.74309220e-02
      1.43479303e-01 3.43341500e-01 2.58943349e-01 1.42018303e-01
      4.68659922e-02 3.91780995e-02 7.11169690e-02 4.39713188e-02
      5.55921495e-02 1.29072204e-01 2.67288089e-01 3.57792765e-01
      1.01988599e-01 7.14682564e-02 3.73094119e-02 4.01434749e-02
      3.78390029e-02 5.06531745e-02 1.33086324e-01 3.15992802e-01
      3.57792765e-01 7.86918774e-02 8.30461644e-03 1.46935564e-02
      2.58049536e-02 1.84667744e-02 1.55868363e-02 1.02852307e-01
      3.57792765e-01 3.57792765e-01 7.97114074e-02 1.09456731e-02
      6.23612525e-03 1.54396603e-02 1.24930590e-02 1.85924321e-02
      3.97287533e-02 3.57792765e-01 3.49684745e-01 8.62069726e-02
      4.12992090e-02 1.88668706e-02 1.58772934e-02 2.72365119e-02
      4.13620658e-02 8.87787193e-02 2.41660476e-01 3.49684745e-01
      1.28191963e-01 8.06757808e-02 2.06596106e-02 5.28829172e-02
      6.76224008e-02 9.14356858e-02 1.09277405e-01 2.77364761e-01
      3.49684745e-01 1.15721725e-01 1.54984081e-02 7.27768522e-03
      8.25863052e-03 8.66631791e-03 3.32167670e-02 2.67523751e-02
      3.49684745e-01 3.49684745e-01 1.86694786e-01 4.92617786e-02
      1.24472212e-02 2.44223401e-02 2.42704786e-02 3.43058892e-02
      3.05463951e-02 3.49684745e-01 2.49088094e-01 1.23305798e-01
      6.84781000e-02 3.87116782e-02 8.39071423e-02 8.16943422e-02
      1.76784545e-01 1.29422307e-01 2.33188137e-01 2.04909414e-01
      2.28863060e-01 1.95549726e-01 8.68243799e-02 1.02528051e-01
      1.11017972e-01 1.98740661e-01 1.85972482e-01 2.82222122e-01
      2.82222122e-01 1.76947713e-01 3.44807096e-02 2.17015743e-02
      3.61294299e-02 3.69569361e-02 5.76000512e-02 4.20585908e-02
      2.82222122e-01 2.82222122e-01 2.82222122e-01 1.44383624e-01
      7.23903626e-02 4.62760217e-02 5.23574762e-02 8.12524930e-02
      6.62411675e-02 2.82222122e-01 1.94855839e-01 2.41421431e-01
      1.75755486e-01 7.63273612e-02 6.55672625e-02 1.09322943e-01
      8.80010799e-02 1.31176248e-01 2.38477901e-01 2.30206788e-01
      2.08160594e-01 1.76327810e-01 9.79432985e-02 7.18668327e-02
